/*
 * Copyright (c) 2026 EdgeImpulse Inc.
 *
 * Generated by Edge Impulse and licensed under the applicable Edge Impulse
 * Terms of Service. Community and Professional Terms of Service
 * (https://edgeimpulse.com/legal/terms-of-service) or Enterprise Terms of
 * Service (https://edgeimpulse.com/legal/enterprise-terms-of-service),
 * according to your product plan subscription (the “License”).
 *
 * This software, documentation and other associated files (collectively referred
 * to as the “Software”) is a single SDK variation generated by the Edge Impulse
 * platform and requires an active paid Edge Impulse subscription to use this
 * Software for any purpose.
 *
 * You may NOT use this Software unless you have an active Edge Impulse subscription
 * that meets the eligibility requirements for the applicable License, subject to
 * your full and continued compliance with the terms and conditions of the License,
 * including without limitation any usage restrictions under the applicable License.
 *
 * If you do not have an active Edge Impulse product plan subscription, or if use
 * of this Software exceeds the usage limitations of your Edge Impulse product plan
 * subscription, you are not permitted to use this Software and must immediately
 * delete and erase all copies of this Software within your control or possession.
 * Edge Impulse reserves all rights and remedies available to enforce its rights.
 *
 * Unless required by applicable law or agreed to in writing, the Software is
 * distributed on an "AS IS" BASIS, WITHOUT WARRANTIES OR CONDITIONS OF ANY KIND,
 * either express or implied. See the License for the specific language governing
 * permissions, disclaimers and limitations under the License.
 */
// Generated on: 23.06.2026 23:13:33

#include <stdio.h>
#include <stdlib.h>
#include "edge-impulse-sdk/tensorflow/lite/c/builtin_op_data.h"
#include "edge-impulse-sdk/tensorflow/lite/c/common.h"
#include "edge-impulse-sdk/tensorflow/lite/micro/micro_mutable_op_resolver.h"
#include "edge-impulse-sdk/porting/ei_classifier_porting.h"

#if EI_CLASSIFIER_PRINT_STATE
#if defined(__cplusplus) && EI_C_LINKAGE == 1
extern "C" {
    extern void ei_printf(const char *format, ...);
}
#else
extern void ei_printf(const char *format, ...);
#endif
#endif

#define STRINGIZE(x) #x
#define STRINGIZE_VALUE_OF(x) STRINGIZE(x)

#if defined (__GNUC__)  /* GNU compiler */
#define ALIGN(X) __attribute__((aligned(X)))
#define DEFINE_SECTION(x) __attribute__((section(x)))
#elif defined (_MSC_VER)
#define ALIGN(X) __declspec(align(X))
#elif defined (__TASKING__) /* TASKING Compiler */
#define ALIGN(X) __align(X)
#define DEFINE_SECTION(x) __attribute__((section(x)))
#elif defined (__ARMCC_VERSION) /* Arm Compiler */
#define ALIGN(X) __ALIGNED(x)
#define DEFINE_SECTION(x) __attribute__((section(x)))
#elif defined (__ICCARM__) /* IAR Compiler */
#define ALIGN(x) __attribute__((aligned(x)))
#define DEFINE_SECTION(x) __attribute__((section(x)))
#elif defined (__clang__) /* LLVM/Clang Compiler */
#define ALIGN(X) __ALIGNED(x)
#define DEFINE_SECTION(x) __attribute__((section(x)))
#endif

#if defined(EI_MODEL_SECTION) && (defined(__GNUC__) || defined(__clang__))
#define MODEL_SECTION(X) __attribute__((section(STRINGIZE_VALUE_OF(X))))
#else
#define MODEL_SECTION(X)
#endif

#ifndef EI_MAX_SCRATCH_BUFFER_COUNT
#ifndef CONFIG_IDF_TARGET_ESP32S3
#define EI_MAX_SCRATCH_BUFFER_COUNT 38
#else
#define EI_MAX_SCRATCH_BUFFER_COUNT 76
#endif // CONFIG_IDF_TARGET_ESP32S3
#endif // EI_MAX_SCRATCH_BUFFER_COUNT

#ifndef EI_MAX_OVERFLOW_BUFFER_COUNT
#define EI_MAX_OVERFLOW_BUFFER_COUNT 10
#endif // EI_MAX_OVERFLOW_BUFFER_COUNT

using namespace tflite;
using namespace tflite::ops;
using namespace tflite::ops::micro;

namespace {

#if defined(EI_CLASSIFIER_ALLOCATION_STATIC_HIMAX) || defined(EI_CLASSIFIER_ALLOCATION_STATIC_HIMAX_GNU)
constexpr int kTensorArenaSize = 174464;
#else
constexpr int kTensorArenaSize = 173440;
#endif

#if defined(EI_CLASSIFIER_ALLOCATION_STATIC)
#if defined (EI_TENSOR_ARENA_LOCATION)
uint8_t tensor_arena[kTensorArenaSize] ALIGN(16) DEFINE_SECTION(STRINGIZE_VALUE_OF(EI_TENSOR_ARENA_LOCATION));
#else
uint8_t tensor_arena[kTensorArenaSize] ALIGN(16);
#endif
#elif defined(EI_CLASSIFIER_ALLOCATION_STATIC_HIMAX)
#pragma Bss(".tensor_arena")
uint8_t tensor_arena[kTensorArenaSize] ALIGN(16);
#pragma Bss()
#elif defined(EI_CLASSIFIER_ALLOCATION_STATIC_HIMAX_GNU)
uint8_t tensor_arena[kTensorArenaSize] ALIGN(16) __attribute__((section(".tensor_arena")));
#else
#define EI_CLASSIFIER_ALLOCATION_HEAP 1
uint8_t* tensor_arena = NULL;
#endif

static uint8_t* tensor_boundary;
static uint8_t* current_location;

template <int SZ, class T> struct TfArray {
  int sz; T elem[SZ];
};

enum used_operators_e {
  OP_RESHAPE, OP_CONV_2D, OP_DEPTHWISE_CONV_2D, OP_ADD, OP_MEAN, OP_FULLY_CONNECTED, OP_SOFTMAX,  OP_LAST
};

struct TensorInfo_t { // subset of TfLiteTensor used for initialization from constant memory
  TfLiteAllocationType allocation_type;
  TfLiteType type;
  void* data;
  TfLiteIntArray* dims;
  size_t bytes;
  TfLiteQuantization quantization;
};

typedef struct {
  TfLiteTensor tensor;
  int16_t index;
} TfLiteTensorWithIndex;

typedef struct {
  TfLiteEvalTensor tensor;
  int16_t index;
} TfLiteEvalTensorWithIndex;

TfLiteContext ctx{};
static const int MAX_TFL_TENSOR_COUNT = 4;
static TfLiteTensorWithIndex tflTensors[MAX_TFL_TENSOR_COUNT];
static const int MAX_TFL_EVAL_COUNT = 4;
static TfLiteEvalTensorWithIndex tflEvalTensors[MAX_TFL_EVAL_COUNT];
TfLiteRegistration registrations[OP_LAST];

namespace g0 {
const TfArray<2, int> tensor_dimension0 = { 2, { 1,3960 } };
const TfArray<1, float> quant0_scale = { 1, { 0.00390625, } };
const TfArray<1, int> quant0_zero = { 1, { -128 } };
const TfLiteAffineQuantization quant0 = { (TfLiteFloatArray*)&quant0_scale, (TfLiteIntArray*)&quant0_zero, 0 };
const MODEL_SECTION(EI_MODEL_SECTION) ALIGN(16) int32_t tensor_data1[4] = { 1, 99, 40, 1, };
const TfArray<1, int> tensor_dimension1 = { 1, { 4 } };
const MODEL_SECTION(EI_MODEL_SECTION) ALIGN(8) int32_t tensor_data2[2] = { 1, 2, };
const TfArray<1, int> tensor_dimension2 = { 1, { 2 } };
const MODEL_SECTION(EI_MODEL_SECTION) ALIGN(8) int32_t tensor_data3[3] = { 6295, -18669, 6860, };
const TfArray<1, int> tensor_dimension3 = { 1, { 3 } };
const TfArray<1, float> quant3_scale = { 1, { 5.8503273976384662e-06, } };
const TfArray<1, int> quant3_zero = { 1, { 0 } };
const TfLiteAffineQuantization quant3 = { (TfLiteFloatArray*)&quant3_scale, (TfLiteIntArray*)&quant3_zero, 0 };
const MODEL_SECTION(EI_MODEL_SECTION) ALIGN(16) int8_t tensor_data4[3*1280] = { 
  -99, -24, -110, -79, -61, 0, -81, -23, -83, 39, -72, 50, 25, -103, 43, -48, -69, -82, -94, 63, -65, 59, -43, -117, -95, 4, 35, -20, 27, -81, -57, -64, 11, -31, -13, -33, -9, -91, -79, -11, -108, 30, -69, 38, 49, 7, -17, -16, -94, 54, -92, -78, -73, 43, -24, 41, -81, -43, -82, -61, -80, 52, 51, 3, -91, -71, -12, -66, -76, -84, 32, -15, -86, 39, -87, -101, -97, 16, -78, 45, 27, -79, -80, -84, -1, 15, -74, -71, 12, -76, -85, -30, -66, -89, -76, -95, -12, 2, -22, -96, -100, 43, 14, -34, -88, -88, -99, -77, 45, -70, 5, 39, -61, 58, -2, -78, -88, 53, -63, -100, 34, -94, -28, 41, -77, -54, -75, 38, -101, -80, 23, -17, -68, 62, -25, -61, -99, -3, -12, 34, 57, -29, 13, 10, -54, -23, -67, 27, 30, -106, -8, 18, 34, -72, 31, -95, -105, -70, 41, -93, -100, 10, -91, 37, 35, 1, -35, 43, -83, -44, -83, -98, -88, -11, 17, -37, -5, 15, 38, -71, -16, 42, -82, -84, -87, -79, -96, -39, -95, -104, 31, 21, 40, 24, -81, -56, -92, -79, 45, 62, 44, 59, -86, -47, -60, -36, 12, 48, -1, -14, -12, -87, 48, -47, -89, 21, 62, -93, -34, -104, -59, 20, -18, -91, 26, -80, 42, -97, -108, -97, -34, 38, -97, -112, -94, 53, 18, -101, 22, -6, 34, -70, -87, -112, 14, 37, 31, 48, -79, 19, -29, -83, 11, -90, 25, -83, -13, -68, 48, -81, 31, -90, 48, -83, -74, 14, -83, -18, -69, -24, 40, -96, -90, 39, -23, 1, -80, -79, 52, 42, -56, -95, 36, -86, -64, -14, -88, 36, 52, 25, 44, -80, -87, -79, 7, -82, -2, -19, -28, -51, 5, -85, 17, 22, 12, 4, -39, -63, 47, 41, 41, 40, 27, 22, 24, 46, 6, -86, -99, -17, -87, -68, 20, 2, 23, 10, -89, -91, -19, -52, -77, 8, -38, -13, -74, -95, -16, 20, 22, -67, -101, 29, 56, 10, -67, 43, 37, -77, -69, -2, 35, -87, 46, 38, -64, 55, 46, 17, -94, -23, 0, -20, 17, -67, -57, 28, 18, -16, 28, 54, -94, -98, 49, -33, -83, -37, -24, -93, -106, -70, -92, -84, 46, -80, -90, -96, 49, -6, 26, -61, -24, -28, 14, 10, -97, -20, -85, -24, -94, -26, -84, -4, 39, 26, 60, -87, -12, -9, -89, 41, -6, -2, 41, -26, -19, 19, -4, 27, -45, -88, -26, 3, 38, 41, 38, -97, -83, 40, -79, -9, 36, -85, 45, 20, -33, -11, 11, -91, -10, 51, -107, -88, -11, 57, 11, -2, 43, -29, -88, -104, -39, -16, -110, 38, -76, -54, -84, -82, 16, 20, -92, 33, -13, 34, 17, -74, -47, -44, -92, -56, 37, -19, 2, 56, 50, -112, -71, 53, -7, -104, 30, -88, 35, 46, -84, -92, 35, -93, 41, 32, 34, -90, -76, -23, -20, -108, -72, 52, 58, 12, 37, -10, -94, 37, 18, -91, -23, -93, 40, 37, -84, -102, -71, -58, 18, 37, -72, 38, -85, -17, -78, -42, 47, 24, -98, 42, 45, -60, 9, -69, -88, 45, -103, 30, -82, 21, -79, -65, 47, 18, -92, -29, 13, -107, 22, 45, -96, -17, -61, -82, -64, 12, -110, -61, -77, 50, -82, -24, -27, 39, 27, 34, 1, -78, 6, -68, -85, 44, 49, -99, -105, -17, 50, -102, -83, -87, 49, -6, 19, 35, -57, -86, 43, 39, -66, -91, -78, -69, -20, -32, -23, 28, 36, 11, -87, 46, -39, -32, -15, 57, -57, 45, -85, 23, 33, 43, -64, -62, 37, 32, -33, -97, -31, -64, -7, 28, 52, 12, -14, 38, -29, 27, 52, 27, -2, 63, 30, -69, -89, 15, -84, -49, 27, -48, 58, -8, -27, -88, 4, 43, -75, -79, 30, -59, 39, 20, -17, -94, 64, 3, 48, -89, -96, 30, -72, -83, 10, -96, 42, -6, -92, -104, -5, 44, -101, 53, -11, -24, -115, -55, -56, -45, -86, -87, 34, 43, -84, -62, 61, -72, -78, -88, -90, -8, -82, 4, 45, -96, 24, 32, -102, -87, 30, 48, 49, -86, -11, -97, -93, -38, 1, -32, 0, -59, -13, 50, -51, -82, -97, -77, 17, 30, -30, -98, 1, 39, -55, 40, 26, 40, -57, -74, 7, 10, -86, 49, -102, -101, -17, -91, 36, -80, 27, -100, -34, -90, -83, -23, 33, -85, -112, -74, 5, -10, -86, -18, -82, -73, 36, -64, -72, -86, -95, 5, 27, -50, 42, -76, 55, 41, -77, 13, -87, 16, -82, -14, -81, -22, -64, -93, 48, -52, -90, -89, -2, -63, -74, -117, 15, -72, 24, -22, -79, -14, 23, -101, 15, -5, -82, -89, 32, -92, 18, -87, -84, 45, -42, -82, 18, 39, -19, -94, -89, -73, -94, -88, -4, -89, -59, 45, 1, 33, 7, -114, 45, -92, -77, -109, 32, -96, 30, 10, 21, -22, -87, -50, -90, 29, 50, -37, -77, 40, -11, -79, -81, 63, 42, 16, 29, -58, -36, -86, -53, -91, -68, 3, 19, 25, 7, 14, 29, 24, 36, -86, -73, 17, -96, -104, -82, 35, 27, -108, 56, 60, -61, -27, 49, 15, -89, -24, 33, 45, -8, -87, 31, -5, -79, 50, -61, -77, 30, -93, -97, -76, -92, -90, -92, 43, 46, -68, -25, -92, -30, -95, 27, -80, -95, -45, 51, 8, -28, -36, 54, -18, 50, 49, -65, -95, -100, 39, 44, -109, 22, -117, -14, 52, 13, -48, -102, -36, -5, 18, -22, -82, -37, -51, -99, -83, -91, -80, -95, -35, -38, 27, 3, 31, 21, -77, -90, 24, -90, -79, -41, 28, -95, -105, -72, -48, 46, -90, 40, 67, -81, -104, 47, -7, 47, 3, -74, 37, 0, 69, 7, -26, -87, -87, -15, 9, 54, -96, 32, -94, -22, 6, -23, 60, -72, 46, -88, 23, -5, -71, 48, 42, -67, 48, 47, -64, 41, -2, -24, 46, -101, -77, -15, -74, -101, -10, -101, 18, -72, 28, 47, -32, -80, -91, 4, -99, 18, 4, -113, -98, -38, -29, 66, 31, -25, -78, -84, -102, -71, 52, -104, -60, -19, -98, 37, 32, -99, 8, -89, -79, -58, 50, -71, 9, -69, -96, 19, -94, 41, -80, 48, 35, -95, -98, -56, -97, -75, -94, -41, -71, 66, -10, 17, 25, -31, -82, 15, 41, -56, -50, -42, 10, -8, -36, -10, -93, -22, 5, 21, -80, 31, -54, 45, -95, -1, -81, -11, 43, 63, -82, 33, 10, -20, -82, -56, -96, 65, -99, 44, -78, -33, 54, 35, -79, -57, -65, -91, -77, 23, -1, -20, 47, -13, -90, 41, -85, 19, 43, 39, 27, -99, -105, 40, -91, -62, -5, 28, 50, 17, -61, -39, -6, 33, -77, -77, -8, -115, 0, -67, -62, 39, -78, 61, -84, -28, 39, 52, -52, -16, -93, -23, 37, -77, -72, -82, -58, 63, -60, 7, -108, -101, -15, -28, 32, -50, -68, -91, -88, -70, 53, -23, 30, 5, -95, -4, -13, -71, -99, 10, -67, -91, -19, -78, 30, 37, -77, 25, -87, 8, -100, -42, -93, -95, 47, -72, -57, 11, 19, -67, 11, 29, -42, -2, -67, -89, -77, -1, -49, 0, -80, -73, -89, -84, 11, -102, -85, -46, -75, -17, 6, -70, 9, -74, 33, 41, -84, 50, -69, -105, -67, -8, -80, 12, 62, -81, 11, -79, -102, -104, 6, -6, 6, 26, -71, -106, -86, -95, -75, -65, -39, 38, -19, -86, -27, 8, 22, 21, -82, -110, -103, -91, -115, -80, -77, 12, -69, -83, -100, 30, 36, -31, -101, -108, 27, -85, 26, 29, 57, -75, 57, 41, -65, 32, 40, -93, 29, -1, 25, 
  -93, -89, -70, -8, 70, 51, -67, -75, -57, -25, 63, -32, -34, 50, -53, -57, 30, 95, -92, -73, 45, -35, -79, -84, -98, -61, 7, 18, -38, 81, 76, -49, 5, 62, -87, 68, 28, 9, 34, -48, -21, -2, -88, -17, -29, -74, 82, -41, 28, -57, -90, -101, 65, -40, -78, -90, 10, -50, 81, -76, 47, -32, -51, -2, -57, 51, -92, 65, 85, 52, -60, -69, 76, -35, 66, -61, -108, -89, 25, -42, -35, 71, 63, 91, -78, -48, -87, 52, -32, 43, -79, 13, 48, 60, -74, 78, -56, 30, 84, 79, 50, -47, 75, -75, 83, -71, -34, 68, -57, 77, -21, -52, 42, -16, -71, 57, 84, -59, 81, -64, -32, -42, -51, -56, -26, -6, 62, -35, -95, 67, -63, -45, -57, -71, 72, 82, -65, -59, -81, -58, -71, 26, -83, 49, -75, 19, 73, -28, -33, -63, 81, -22, -43, -57, -64, -78, -84, 83, -86, -20, 8, 47, 6, -66, -58, -59, -73, -50, -78, 51, -4, 50, -105, 43, -69, -63, 18, -64, -27, -51, 55, -1, -15, 66, -67, -28, -4, -63, -64, -72, -44, 17, -31, 41, 61, 71, -74, 71, -84, -68, -55, -49, -2, -40, -57, -83, -50, -67, -30, -83, 34, 7, -64, 82, -26, -49, -84, 42, 90, -29, 23, -72, -59, 22, -3, 14, -60, -95, -6, 80, 55, -44, -99, 8, 86, -62, -87, -30, -59, 51, -73, -104, -63, -49, -74, -54, -44, -44, 63, -65, 18, -63, -84, -34, 9, 84, 80, -23, -47, -57, -68, -91, -30, 102, -76, -47, 73, -45, 70, -49, -57, -92, -93, -58, -86, 44, 39, 65, -72, -51, 91, 89, -45, 76, 79, -26, -49, -81, -67, -63, 5, -65, -85, -9, 44, -61, 41, -68, 29, -43, -65, -88, -73, -75, -55, 36, 89, -26, -37, -75, -57, 0, -58, -69, -71, -86, -40, -40, -109, 77, -84, 75, -37, -81, -53, -81, 18, -70, -62, 45, 102, 43, -42, 38, 53, 4, 51, -20, -68, 40, 46, -68, -71, -56, 78, -64, -38, 45, -76, 65, -66, 57, -52, -40, 52, -78, -105, -61, 35, 70, -48, -61, -27, 86, -82, -72, -55, 56, -56, -59, -4, 92, -17, -23, -82, -100, -5, -80, -103, 27, -95, 37, -56, 66, -85, -87, -50, -52, -99, -86, -74, 45, -62, -53, -71, -31, -85, 39, -87, 67, -47, 3, -40, -68, -29, -109, -19, -18, 71, -61, 38, -86, -51, -60, -67, 29, -43, -21, -63, -91, -73, -42, -62, -65, -61, 5, -90, -50, 82, -76, -14, 87, -65, -14, -68, -50, 41, 103, -37, -67, 52, -53, 53, -80, -19, -103, -55, 23, -90, 30, -94, -64, -90, -69, -61, 72, -90, 32, 52, -78, -20, -73, 93, -6, -82, 47, -63, 67, 1, 1, -36, 45, 27, -76, -62, -100, 85, -50, 4, -96, -57, -91, 1, -40, -50, -43, -96, -63, -30, -67, -30, -89, 87, -103, -76, -67, -69, -43, -57, 66, -11, -14, 84, -43, -27, 66, -70, -1, -71, -59, 85, -21, -78, 61, 64, -63, -45, -34, 4, -15, 95, -46, -45, -50, 39, -71, -44, -58, 8, 27, 27, -74, -83, 1, 37, -4, 39, 90, -26, -71, 74, 59, -87, -103, -36, -60, -92, -29, 72, 42, -61, -28, -36, -87, 73, -67, -84, -36, 75, -41, -76, -57, -93, 68, -44, -75, -87, -47, -73, -94, -111, -54, -61, 23, 33, -6, -64, -83, -20, -47, -68, 75, -48, -39, 76, 77, 82, 5, 32, 48, -4, -16, -58, -39, -97, -76, 49, 43, -38, -42, 23, -46, 47, -25, -76, -52, 71, 9, -29, -62, -22, -104, -86, 83, 10, -24, -57, -65, -90, -51, 33, -65, -68, -102, -52, -71, -39, 44, -77, -82, 101, -23, -46, 81, -60, -10, 19, -90, -87, -11, -49, -43, -29, 24, -56, -49, -4, 25, -16, 16, -66, -82, -33, -19, 79, -26, -84, -24, -75, 41, -61, 78, -5, 29, -58, -63, 38, -72, -49, 81, 38, -60, 82, 87, -46, -58, 62, -30, -71, -63, -54, 71, 87, -76, -65, -32, -48, -64, 0, -71, 73, -9, 20, -32, -59, -51, 11, -66, -1, -22, 14, 16, 93, 12, 42, -21, 23, 70, 70, 78, -70, -72, 3, 1, -48, -63, 62, -47, -57, -52, 50, 51, -71, -55, -2, -54, -33, -88, -83, 37, -35, 72, -57, -93, -81, 60, 61, -79, 42, 66, -81, -74, -41, -72, -84, -37, 61, 45, -50, -104, -65, -104, 75, -73, -79, 77, -77, -70, -54, -61, -63, 32, -98, -33, 71, -60, 79, -83, 71, 52, -39, 80, -32, 6, -63, 5, 15, -80, -54, -20, -29, -38, 69, -90, -46, -71, -46, 70, 66, -81, -54, 60, 7, 71, -14, -22, 38, 61, 11, -74, 82, 15, -91, 64, -50, 60, 33, 82, 79, -59, -57, -49, -75, -20, 15, -49, 83, -46, 31, -80, -6, -68, -50, -78, 53, 41, 62, -31, -45, -93, 87, -81, -40, 86, -4, -66, -9, -79, 60, 88, 62, -86, -68, 28, 77, -85, 28, -71, -45, 33, -50, -69, -26, 16, 35, -60, -74, -35, -78, -39, -60, -3, -38, -67, 73, 75, -88, -62, 96, -55, -44, 2, 25, -54, -51, 11, 46, -74, -86, 77, -61, -90, -5, -51, 52, -43, 65, -51, -56, -83, -68, -57, 75, -21, -57, 89, 53, 70, -60, 55, 28, 14, -77, 53, -71, -75, -46, 46, -112, -84, -47, 3, -81, -94, -74, -58, -60, 60, -84, 37, -69, -9, 81, 45, 61, 26, 37, 68, -88, 5, -2, -33, -77, -75, -1, -38, -54, 29, -33, -59, 20, 62, -88, -53, 80, 36, 27, 21, -47, -10, -56, -68, 7, -63, -71, -43, -37, -58, 83, -65, 67, -61, 72, -59, -24, 32, -48, -62, -73, -4, -60, -81, -2, -86, 52, -69, 58, -50, -90, -42, -67, 78, -57, -48, 15, 14, -62, -10, -28, 55, -26, -52, -81, 70, -79, -87, -75, 32, -63, -68, 75, -58, -54, -81, 71, 49, -73, -6, 41, -57, -84, 60, -88, -57, -75, -71, -11, 50, 69, 45, -46, -57, 44, -101, 62, -95, -61, -47, -40, 10, -85, 76, 61, -49, 78, -52, 81, -59, -26, -101, -41, 83, -53, -51, 76, -81, -1, -89, -79, -104, -93, 79, -57, 63, -85, -48, -73, 81, -48, -79, 85, 67, -85, -4, -68, -107, -53, -102, 19, -40, -59, -73, -32, 62, -52, -28, 22, 51, -21, -64, -74, 57, -73, 30, -76, 36, 52, -8, -59, -61, -92, -100, 25, -67, -18, 49, 57, 54, 69, -90, -38, 16, -55, -40, -78, 35, -62, -84, -58, -30, -52, -39, 36, -87, -89, -84, -71, -86, -33, -35, -5, 70, -16, -44, -40, 49, 69, -98, -55, -62, 4, -76, -48, -90, -54, 89, -99, -40, -62, -89, -46, -79, 74, -88, 57, -85, 84, -83, -83, 83, -9, -91, -86, -35, -31, -71, -81, -86, -54, 77, 83, -65, 28, -38, -28, 36, -76, -104, 78, 43, -66, -65, 48, 82, 2, -75, -46, 39, -51, 71, 54, 36, -70, 10, 43, -61, -95, -80, -70, -23, 16, -45, -57, 76, -58, -83, 65, -30, -86, -39, -43, 81, 69, -79, -36, 34, 57, 62, -67, -60, -95, 24, 83, 44, 81, -29, -62, -73, -57, 1, -98, -60, -24, -52, -59, -78, 52, 14, 88, -92, 17, 29, 23, -61, -58, 65, 15, 16, -59, 76, -61, -21, -62, -84, 62, -14, -71, -51, -27, 35, -90, -91, -51, -21, -79, -16, -3, -4, -71, 56, -64, -34, 12, 7, -99, -4, 71, -47, -70, -44, 81, -69, -31, -80, -13, 10, -59, -38, -30, -71, 
  90, 65, 98, 61, -26, -75, 80, 62, 81, -39, 16, -41, -15, 75, -36, 68, 36, -75, 97, -46, 2, -71, 82, 109, 93, 27, -59, 4, -18, -25, -48, 77, -12, -23, 83, -38, -3, 80, 64, 38, 90, -57, 101, -43, -64, 47, -66, 31, 65, -31, 87, 101, 7, -50, 75, 2, 93, 75, 16, 76, 68, -48, -28, 1, 87, 27, 59, -64, -86, 49, 8, 64, 34, -47, 23, 96, 112, 51, 54, -25, -15, -56, 39, -87, 53, 7, 86, -23, 4, 59, 93, 31, 43, 58, 80, 3, 45, -44, -76, 41, 76, -43, -94, 90, 39, 73, 93, 44, -44, -81, -6, -28, 20, -71, 69, 17, -73, -43, -23, 80, -32, 92, 61, -11, 65, 58, 16, -42, 102, -23, -4, 54, 64, -63, -74, -66, 84, 62, 63, 4, -46, 25, 52, -58, 98, 5, -32, -30, -5, 95, -82, -10, -13, 80, 15, 81, 101, -92, 34, 78, 75, -42, 88, -9, 15, 24, 58, -20, 80, 24, 69, 75, 104, -12, 34, 72, -15, 17, -55, 88, -80, -71, 80, 40, 85, 68, 111, 79, 83, 96, -38, -45, -38, -66, 13, -76, 78, 5, 13, -73, -40, -63, 88, 83, 63, 78, 8, -36, 13, 73, -10, 82, -47, -85, 75, -1, -17, 73, -89, 85, 47, 33, 59, 70, -30, 46, -39, 99, 87, 34, -47, -17, 87, 72, -45, -51, 57, 75, 34, -32, 16, 118, 77, 101, 59, -31, -13, -52, -47, 23, 13, 76, 60, 71, -41, -76, -66, 61, -39, 67, 11, 95, -46, -96, 77, 38, -25, 37, -64, 71, -19, 88, 92, -18, 82, -51, 58, 16, 4, -23, -99, -10, -7, 31, -37, 14, 78, 36, -27, 25, -64, 94, 81, 74, -60, 91, -27, 67, 15, 62, 55, 90, 63, 16, 21, -40, -88, 55, -45, -11, -26, -57, 27, 39, 33, -8, 10, 91, 96, -82, 80, -51, 15, 60, 11, 61, 62, 82, 56, 11, -23, -72, 59, -13, 44, 77, -27, -15, 15, 42, 81, 19, -40, 26, -79, -27, -35, 53, 83, -91, -5, 28, -43, -26, 23, -42, 44, 12, 65, -51, 43, 51, -8, -9, 73, 2, 13, -45, -8, -48, 80, 28, -57, 47, 85, 86, 35, 85, 101, 53, 89, 74, -26, -65, 86, 93, -60, 51, 39, 89, 95, -8, 34, 41, 83, 53, 92, -5, 92, -46, 87, 5, -27, 19, -70, 105, 27, 33, 55, -12, -33, 46, -9, 70, 77, -51, 42, -40, 75, 88, 74, 27, 6, -11, -19, 83, 89, -39, -45, 65, -38, -82, 6, -27, 86, 50, -55, -44, 38, -36, 69, 101, -40, -27, 0, 50, -42, 6, 98, 83, 84, 91, 107, 3, 99, 6, 89, 63, -76, 43, 69, 18, -78, -47, 62, 46, 61, -96, 92, 60, -40, -28, -4, -34, -48, 103, -89, -55, 5, 109, 6, 91, -58, -45, 83, 92, 47, 97, -40, 9, -48, 87, -48, 100, 59, 87, 82, -54, -53, -97, -51, 19, -3, -30, -3, 25, 63, 80, -5, -10, -50, 106, 81, -26, -93, 27, 66, -22, 77, 33, -87, 50, -42, 9, 57, 2, -40, 73, -19, 71, 78, 4, 96, -39, 57, -17, 54, -116, -40, 26, -22, -45, 58, 100, 16, 1, 96, 39, -32, 73, 76, -1, 80, 86, -88, -35, 81, 40, -64, -38, 29, -16, 85, -21, 28, 73, 90, -31, -15, 103, 116, 48, -43, 64, 74, 72, -27, 64, -33, -28, 82, 4, -17, -45, -93, 45, -7, 77, 9, -20, 32, -53, -5, 2, 84, -7, -12, -1, 52, -66, 41, -40, 85, -18, 9, -24, -51, 37, -48, -13, 56, 106, 90, -25, 15, -42, -42, 33, 71, -7, 3, 18, -18, 35, 32, -35, -15, 44, 85, 68, -74, 70, 1, -82, -54, 10, 31, 93, 65, -55, 73, 95, -28, 44, -26, 15, 11, 40, -71, -17, -34, 94, 99, -28, -81, 85, 47, 77, 20, -35, 94, 41, 9, -67, 84, -19, -13, 55, 89, -101, 41, 60, -35, -65, -35, -43, -14, 65, -49, 92, 76, -40, -81, 58, 81, 7, -50, 91, -35, 22, 52, 64, -62, -53, -36, 94, 17, 82, 89, 62, -8, 17, -127, 27, -27, -62, 39, -8, 45, -66, 44, 15, 26, 80, 38, 12, -62, -27, 13, -40, 29, 39, 48, 50, 74, -43, 85, 100, 80, 78, -28, -25, 1, 97, 75, 40, 47, 76, -75, 20, 110, 76, 11, 52, 93, 36, 33, 40, -24, 97, 87, 97, -18, 55, 30, -81, 21, 71, -49, -32, 79, -45, 94, -8, -13, 54, 8, 72, -57, 51, -50, -100, 96, 68, 54, 49, 50, 101, 30, 74, -18, 54, -69, 71, 0, 90, -10, -95, -37, 88, 8, 42, -47, -17, 79, -51, 22, 38, -30, -8, -73, 84, 96, -5, 83, 1, -31, 12, 9, -31, 63, -27, 44, 105, -63, 76, -78, 87, -56, 93, -36, 37, -11, 55, 63, 4, 42, -34, -42, 82, -80, 10, 43, -33, 65, -29, -71, 49, -84, -73, -41, 82, 69, 76, -86, 46, -63, 25, 31, -52, 16, -1, -54, 84, 44, 44, 100, 94, 82, -40, 2, 89, -71, -45, -55, -56, 5, 30, -47, 61, -24, -66, -8, 79, -25, 4, 38, -17, 86, -2, 3, 84, 73, 97, 64, 90, 54, -44, -27, 84, 70, 66, -60, 69, 7, -74, 73, -78, -19, -46, 10, 27, 4, -18, -5, 1, 67, 82, 104, 33, -46, 72, 48, 105, 72, -50, 31, 4, 86, 3, 64, -25, -82, 64, -42, 46, 56, 49, 94, 69, 69, 55, 79, 42, -3, -39, -6, 33, 68, 6, 60, 43, 74, -6, -58, 77, 59, 22, -51, 79, -21, -55, 65, 83, -23, 34, -52, 39, -18, 6, -89, -72, -80, 47, 90, 55, 49, 50, -17, 58, -13, 99, 29, 55, -38, -50, 45, -37, 87, 5, 58, -98, -50, -39, 50, -64, -28, 64, -48, -38, 34, -49, 92, -46, 70, 88, 97, -26, 84, 38, -9, -10, -31, 83, -26, 58, 36, 84, -61, 25, 107, 40, 79, 75, -50, 8, 28, 53, 49, 69, 68, -43, 73, 82, -30, 90, -7, -11, 66, -21, 94, -53, 1, -38, -57, 11, -53, 114, -1, 104, -46, -56, -40, -27, 5, 88, 71, 92, 84, 101, 74, -49, -67, -72, 67, 7, 70, 18, 0, 49, -97, 11, 94, -20, 61, 87, 46, 96, 21, 26, 0, 86, -28, -26, -36, 107, -44, 48, 27, -11, -44, -2, 17, -38, 77, 66, -23, 80, -61, 88, 34, 100, 5, -25, -47, 47, -1, -20, 28, 106, -1, -24, 50, -46, 75, 57, -22, 81, 19, -43, -15, -28, 70, 93, 22, 92, 62, 61, -35, -47, -40, -58, 51, 39, -29, 47, -23, 81, 89, 56, 49, 89, -35, 80, -67, -93, 77, -28, -35, 91, 44, 88, -76, 37, 26, 77, -50, 86, -52, -97, 5, 103, 97, 29, 45, -11, 91, 87, 96, -6, -69, -31, -13, -6, 9, 60, 76, 78, -62, 75, 41, 92, 45, -91, 60, 39, -3, 54, -16, -59, -60, 87, 66, 59, 62, -9, 81, 70, 42, -6, 53, 23, -3, -63, 50, 95, 39, 53, 83, 55, 53, -19, -6, 94, 79, -40, 62, 39, 75, 80, 83, -23, -39, -61, -74, -38, 13, 70, -49, 53, 105, 70, 26, 80, 34, -34, 34, -35, -86, 102, 77, -29, -11, 39, -1, 27, 93, 55, 94, -58, 68, 39, -16, 95, 35, 40, 25, 41, -7, 56, 115, 106, 94, 98, 86, 75, -7, 70, 76, 72, 11, -15, 30, 92, 103, -41, -4, -10, 13, -56, -14, -27, -39, 74, -24, -57, 78, -6, 31, 33, 
};
const TfArray<2, int> tensor_dimension4 = { 2, { 3,1280 } };
const TfArray<1, float> quant4_scale = { 1, { 0.008824177086353302, } };
const TfLiteAffineQuantization quant4 = { (TfLiteFloatArray*)&quant4_scale, (TfLiteIntArray*)&g0::quant3_zero, 0 };
const MODEL_SECTION(EI_MODEL_SECTION) ALIGN(16) int32_t tensor_data5[1280] = { -3728, -3275, -3413, -2526, -4131, -3540, -3875, -2863, -4110, -2655, -3781, -3655, -1977, -3618, -3532, -3385, -3611, -2612, -3433, -2613, -3461, -4062, -3652, -2491, -2879, -2842, -3494, -2571, -2952, -3576, -3651, -3394, -3452, -3051, -2508, -3836, -3380, -3018, -3018, -3663, -2964, -3516, -3857, -3303, -3150, -3096, -3035, -2774, -3343, -2590, -3270, -3239, -3985, -3966, -4076, -3888, -3310, -3224, -3832, -3653, -3352, -3007, -3129, -4066, -3331, -2847, -3392, -3394, -2989, -2716, -2878, -4959, -3019, -3571, -4080, -3668, -2808, -2723, -3288, -4185, -3887, -3714, -3573, -3327, -3790, -4188, -4483, -3177, -4076, -3173, -2553, -2344, -3062, -4100, -3447, -2780, -3560, -3208, -3137, -3798, -3346, -2831, -4033, -3420, -3685, -3658, -2641, -2406, -3058, -3277, -3348, -4280, -3941, -3632, -2983, -3112, -2764, -2225, -2751, -2838, -3693, -2973, -3504, -3257, -2513, -3727, -3148, -2966, -4206, -2750, -2713, -3407, -3911, -2822, -3986, -3084, -2927, -3379, -3201, -3987, -3745, -3133, -3620, -3594, -3501, -4121, -3547, -3803, -3425, -3143, -3040, -3938, -4160, -3901, -2806, -3820, -3284, -3515, -3636, -3426, -3352, -2650, -3657, -3316, -3161, -3356, -2623, -2844, -3209, -3407, -2529, -2790, -3546, -3044, -3969, -3853, -3767, -2681, -3132, -4377, -3017, -3541, -3437, -3672, -2803, -3973, -3131, -3191, -2854, -3605, -2791, -3419, -2769, -3787, -3935, -3166, -3641, -4121, -3238, -3044, -3624, -4060, -3202, -3270, -3303, -3024, -3584, -3070, -2467, -3484, -3417, -3642, -4080, -3124, -3609, -3393, -3207, -3360, -3319, -2568, -3200, -2405, -2991, -3337, -3236, -4280, -3627, -2791, -3342, -3669, -3850, -3442, -3620, -3233, -3516, -3735, -3633, -3465, -4200, -3786, -3543, -2669, -3119, -3606, -3595, -3892, -3865, -3366, -2798, -2912, -3283, -3551, -2982, -3124, -3640, -3156, -3685, -2793, -3461, -3330, -2902, -3256, -3197, -3000, -3051, -3336, -3484, -3941, -3614, -2930, -2162, -3776, -3455, -2306, -3326, -3277, -2844, -3864, -3000, -3517, -4400, -3262, -3773, -3481, -2561, -2990, -3579, -2657, -3418, -3020, -2501, -2753, -3312, -4073, -3987, -2699, -3135, -3318, -3487, -3185, -2559, -3942, -3253, -3458, -2880, -2968, -2360, -3585, -3328, -3555, -2607, -3573, -2794, -3424, -2698, -3628, -3534, -3265, -4756, -3260, -3140, -3035, -4330, -3648, -4129, -3186, -3265, -3532, -3612, -2966, -3230, -3699, -3679, -3525, -3257, -3653, -2625, -4420, -3444, -1929, -3426, -3670, -3182, -3566, -3435, -2546, -2558, -2745, -3235, -3731, -3500, -4036, -3111, -3256, -3115, -3134, -4116, -3249, -2726, -3037, -2924, -2265, -3884, -4030, -2589, -2813, -3570, -3405, -4011, -4062, -3702, -3176, -2911, -3449, -3292, -3532, -3200, -3769, -2297, -3593, -3670, -3609, -2573, -2863, -3517, -3365, -3892, -3809, -3270, -4225, -2783, -3652, -2687, -2690, -2943, -3280, -3027, -3201, -3816, -2424, -2722, -3332, -2625, -3105, -2996, -3055, -2566, -4122, -4208, -3239, -2860, -3467, -3344, -3156, -3123, -3645, -3226, -3742, -4057, -3419, -3082, -3555, -3176, -4298, -3642, -2431, -3175, -3773, -3412, -3986, -3103, -3136, -3596, -2250, -3763, -3414, -4203, -3420, -3228, -3032, -3567, -3370, -2591, -3037, -2767, -3161, -3546, -3050, -3840, -3127, -3081, -3202, -3999, -2367, -3147, -2930, -3610, -3568, -3170, -2450, -3553, -3144, -3980, -3344, -3507, -3343, -3139, -3049, -3210, -3565, -2583, -3459, -3049, -2503, -3141, -3346, -2940, -2442, -2924, -3787, -2807, -3575, -3629, -2747, -3360, -3177, -3888, -3148, -3124, -3162, -3055, -2520, -3591, -4054, -2547, -3376, -2532, -3461, -3819, -3713, -2992, -3379, -3189, -3454, -3323, -3328, -3236, -3091, -4006, -3220, -2649, -4086, -3268, -3199, -3476, -2631, -2804, -3413, -3684, -3299, -2593, -2680, -3169, -3505, -3388, -3180, -3019, -3230, -2848, -3607, -3325, -2778, -3398, -3083, -3488, -3959, -3369, -2751, -3328, -4594, -2922, -2729, -3628, -2926, -2924, -4756, -3235, -3525, -3444, -3588, -3199, -3355, -2606, -2293, -3209, -4009, -3632, -3640, -2962, -3950, -2845, -2967, -3433, -3370, -4628, -2294, -3231, -4093, -3633, -3596, -3755, -2952, -3512, -3600, -3940, -2760, -3499, -3226, -4241, -4242, -3399, -2571, -3666, -3628, -4224, -2470, -3334, -3191, -3603, -3956, -3169, -3026, -4224, -4047, -4106, -3423, -2965, -3376, -4019, -2875, -3848, -3532, -2955, -3621, -2991, -3564, -2944, -2017, -2897, -2218, -3958, -4013, -3831, -3870, -3890, -3820, -3400, -2476, -2779, -3418, -3590, -3231, -2867, -3631, -3153, -3314, -3537, -3810, -3569, -2631, -2379, -4123, -4338, -2340, -3502, -2828, -4078, -3199, -3053, -3143, -3697, -3457, -3544, -3707, -2844, -3348, -3275, -3371, -2781, -3365, -2744, -3582, -3244, -2706, -3801, -3254, -3010, -3453, -3364, -3218, -3559, -3733, -4192, -3315, -3379, -2808, -3574, -3189, -3338, -2842, -3938, -2566, -3555, -3991, -3329, -2793, -3232, -3290, -3343, -2730, -3844, -3428, -2662, -3721, -4264, -3761, -2771, -2986, -3687, -3581, -3513, -3056, -3057, -3386, -3147, -2908, -2762, -3327, -3208, -4250, -4076, -3565, -4196, -3900, -3512, -3758, -3512, -3919, -2762, -3429, -2927, -2902, -3754, -4079, -3194, -2665, -3317, -4756, -4133, -2995, -3889, -3611, -3497, -3532, -3568, -3370, -4251, -2831, -3265, -3313, -3678, -4212, -3676, -3306, -3879, -3903, -3590, -3708, -3178, -2803, -3512, -3169, -3673, -4009, -3589, -3677, -4172, -3466, -3654, -3185, -3265, -2620, -3551, -3426, -3723, -3439, -3672, -2848, -4166, -3013, -2339, -3213, -3157, -2871, -3269, -4344, -3372, -3813, -2188, -3323, -3045, -3132, -3160, -2974, -3622, -4130, -3581, -2732, -2699, -4337, -3781, -3800, -3204, -2927, -2915, -3761, -3959, -3380, -3806, -3066, -2858, -2533, -3808, -3242, -4022, -3690, -4255, -3347, -2423, -3574, -3355, -4382, -2750, -3907, -2479, -3572, -2755, -3453, -3135, -4055, -3659, -3179, -4547, -3758, -2724, -3246, -4013, -2667, -2831, -3486, -3299, -4125, -3191, -2841, -3549, -4032, -3345, -2979, -3560, -3076, -2544, -2848, -3472, -3064, -3285, -3509, -3001, -3737, -3039, -3226, -3618, -3542, -2820, -3696, -3823, -3894, -2974, -3185, -3247, -3939, -3679, -3172, -3665, -3906, -3943, -2811, -3938, -2991, -3165, -2664, -4021, -3124, -3635, -3232, -3550, -3293, -3484, -3442, -2939, -3510, -3178, -3541, -3355, -2989, -3753, -3221, -3572, -4122, -2617, -3331, -3453, -3210, -3730, -4229, -3575, -3921, -3467, -4117, -3500, -3390, -4782, -3009, -3817, -3098, -2979, -2989, -3241, -3605, -2363, -2657, -2996, -3344, -3348, -3426, -3661, -3087, -3431, -3316, -4240, -3001, -3313, -2951, -3778, -3763, -3207, -2589, -2907, -3697, -3467, -3944, -3401, -2968, -3308, -2984, -3346, -3339, -3546, -3829, -3137, -3203, -3345, -2741, -2972, -3301, -3283, -3559, -3411, -3830, -3544, -3677, -3665, -3309, -3032, -3138, -3376, -2941, -3373, -2870, -3276, -3863, -3149, -3712, -3217, -3809, -3256, -3746, -4060, -3776, -2783, -3062, -3459, -3917, -3735, -3000, -4019, -3949, -4637, -3438, -3276, -2700, -4057, -4238, -3040, -3243, -3209, -3332, -3215, -3400, -3643, -4038, -2696, -3628, -2374, -3807, -3752, -3157, -3218, -3504, -3320, -3439, -3419, -3051, -3483, -3480, -3172, -3266, -3664, -2962, -3630, -3018, -4092, -3621, -2597, -3614, -3285, -3596, -3250, -3480, -3655, -3591, -2849, -2602, -3212, -3135, -3156, -4138, -3700, -3314, -3254, -2962, -2424, -3400, -3293, -3528, -3810, -3432, -4489, -2873, -3236, -3287, -4040, -3271, -3315, -3597, -3669, -3541, -3948, -3131, -2795, -2671, -3874, -3848, -3346, -2630, -4207, -2897, -3400, -3439, -3579, -3329, -3389, -2904, -2988, -3192, -3087, -2901, -3741, -3776, -3659, -3251, -3768, -3416, -3454, -4022, -3785, -3247, -3012, -4274, -2570, -3848, -3792, -3432, -3214, -3309, -3687, -3840, -3022, -3601, -3234, -3566, -2995, -3055, -2997, -2700, -3800, -3196, -3161, -3235, -3178, -3016, -3050, -3658, -3160, -3526, -2971, -3326, -3321, -3415, -3336, -3034, -3821, -2641, -3757, -3661, -3686, -3436, -2565, -3443, -3526, -4839, -4027, -3443, -3463, -3531, -2096, -2538, -3549, -3251, -3390, -4036, -3470, -3975, -4273, -3643, -3831, -3112, -3584, -3476, -3788, -3834, -3753, -3334, -3271, -2624, -4133, -3037, -3473, -3430, -3477, -3139, -3392, -3022, -3332, -2868, -3407, -3181, -3378, -3593, -2884, -3121, -2503, -3195, -3229, -2734, -3028, -3402, -3424, -2743, -3526, -3580, -1992, -3041, -3838, -3328, -3797, -2352, -3104, -3597, -3590, -2948, -2958, -3076, -3500, -2844, -3715, -3957, -2846, -3245, -3572, -3197, -2703, -3610, -3496, -3366, -2888, -2828, -3626, -3501, -3091, -2776, -2860, -3347, -3160, -3375, -2784, -3157, -3012, -3578, -3926, -2429, -3344, -2508, -4391, -4465, -2895, -4123, -3291, -3483, -3886, -3511, -4382, -3114, -3075, -3507, -3476, -3838, -3936, -3096, -3890, -3260, -2928, -3728, -2649, -2671, -2500, -3859, -4223, -4333, -2873, -2600, -3405, -3860, -3338, -2667, -3727, -3441, -3093, -2849, -2818, -4502, -3693, -3632, -2882, -3633, -3749, -3069, -3109, -3140, -3870, -3790, -3211, -3791, -3147, -3441, -3746, -3068, -3540, -2893, -3786, -3506, -2451, -3303, -3916, -2730, -3780, -3319, -3529, -3989, -4233, -4426, -3654, -3181, -3354, -2805, -2812, -2802, -3258, -3381, -2700, -3810, };
const TfArray<1, int> tensor_dimension5 = { 1, { 1280 } };
const TfArray<1280, float> quant5_scale = { 1280, { 5.4328480473486707e-05, 5.7838315115077421e-05, 5.8943565818481147e-05, 7.6621305197477341e-05, 5.143533053342253e-05, 6.1856415413785726e-05, 6.5308602643199265e-05, 7.8951394243631512e-05, 4.9396381655242294e-05, 7.1847360231913626e-05, 4.8115667595993727e-05, 5.5327047448372468e-05, 0.00010520128853386268, 5.7794481108430773e-05, 6.6588116169441491e-05, 6.5839114540722221e-05, 5.9562436945270747e-05, 9.13383046281524e-05, 6.2609047745354474e-05, 7.751408702461049e-05, 6.1109494708944112e-05, 5.258041710476391e-05, 5.5136340961325914e-05, 7.2461494710296392e-05, 7.9500525316689163e-05, 7.6497875852510333e-05, 5.6767294154269621e-05, 7.7211763709783554e-05, 6.4879190176725388e-05, 5.4911644838284701e-05, 5.874564521946013e-05, 5.8600158808985725e-05, 5.9796460845973343e-05, 7.3346411227248609e-05, 7.3892748332582414e-05, 5.5526477808598429e-05, 7.0166497607715428e-05, 6.3068873714655638e-05, 6.4236017351504415e-05, 6.00398525421042e-05, 8.0413738032802939e-05, 6.1589729739353061e-05, 4.9328496970701963e-05, 6.7337146901991218e-05, 6.1177997849881649e-05, 6.3274943386204541e-05, 6.2448620155919343e-05, 7.1793583629187196e-05, 5.8568501117406413e-05, 8.3302998973522335e-05, 7.3379087552893907e-05, 6.6407243139110506e-05, 5.9348447393858805e-05, 5.073976717540063e-05, 4.9025296902982518e-05, 6.0323483921820298e-05, 6.2967243138700724e-05, 6.3537205278407782e-05, 5.5180971685331315e-05, 7.3967399657703936e-05, 6.2090708524920046e-05, 6.6132182837463915e-05, 6.1162281781435013e-05, 4.3723874114220962e-05, 6.3583356677554548e-05, 6.966986256884411e-05, 6.1216174799483269e-05, 6.1169208493083715e-05, 6.0633839893853292e-05, 7.7281591075006872e-05, 6.589998520212248e-05, 4.0341823478229344e-05, 6.6155997046735138e-05, 6.0275124269537628e-05, 4.494785753195174e-05, 5.3300864237826318e-05, 6.9403104134835303e-05, 6.7114116973243654e-05, 6.6517815866973251e-05, 5.0578597438288853e-05, 5.1850514864781871e-05, 4.9218477215617895e-05, 5.5268035794142634e-05, 6.1077313148416579e-05, 5.9118177887285128e-05, 4.8978567065205425e-05, 4.7971214371500537e-05, 6.2667517340742052e-05, 4.7839534090599045e-05, 7.6350421295501292e-05, 7.5896088674198836e-05, 7.3340277594979852e-05, 6.7927583586424589e-05, 5.2927432989235967e-05, 5.8949652157025412e-05, 8.1545847933739424e-05, 5.6440654589096084e-05, 6.5460233599878848e-05, 6.3279556343331933e-05, 5.3489653510041535e-05, 6.6378619521856308e-05, 6.1530947277788073e-05, 4.8467387387063354e-05, 6.2124570831656456e-05, 5.9986283304169774e-05, 5.8932724641636014e-05, 6.9581175921484828e-05, 8.4671090007759631e-05, 7.4697250965982676e-05, 6.7495726398192346e-05, 7.103037933120504e-05, 4.9968195526162162e-05, 5.1681272452697158e-05, 6.0172285884618759e-05, 7.6235162850935012e-05, 6.6548374888952821e-05, 6.6690699895843863e-05, 0.00010598725930321962, 7.2901115345302969e-05, 6.5787535277195275e-05, 6.1292426835279912e-05, 6.389657937688753e-05, 7.0722227974329144e-05, 5.681379116140306e-05, 8.8046886958181858e-05, 5.4538591939490288e-05, 6.6589120251592249e-05, 5.8179371990263462e-05, 4.8069010517792776e-05, 8.0573561717756093e-05, 7.8644465247634798e-05, 6.355838559102267e-05, 5.9458881878526881e-05, 6.7122891778126359e-05, 4.9272694013779983e-05, 7.7852462709415704e-05, 6.8289627961348742e-05, 6.2018945754971355e-05, 6.3727937231305987e-05, 5.3210835176287219e-05, 5.956046879873611e-05, 6.8727596953976899e-05, 6.0092108469689265e-05, 6.2276558310259134e-05, 5.7021788961719722e-05, 5.0690839998424053e-05, 5.5632219300605357e-05, 5.8299134252592921e-05, 5.6230059271911159e-05, 6.0830720030935481e-05, 7.6411262853071094e-05, 5.7945639127865434e-05, 5.3805069910595194e-05, 5.087018507765606e-05, 7.467680552508682e-05, 5.9238627727609128e-05, 7.3988470830954611e-05, 5.3228584874887019e-05, 6.0312075220281258e-05, 5.6106480769813061e-05, 5.5615259043406695e-05, 7.0899230195209384e-05, 5.4719290346838534e-05, 6.5581989474594593e-05, 7.2577451646793634e-05, 5.8784258726518601e-05, 8.3007529610767961e-05, 7.7967837569303811e-05, 6.5389809606131166e-05, 5.3805055358679965e-05, 7.455130253219977e-05, 7.176784856710583e-05, 6.7407578171696514e-05, 7.1007983933668584e-05, 4.7338849981315434e-05, 5.4389231081586331e-05, 5.3167543228482828e-05, 6.5224747231695801e-05, 6.6345470258966088e-05, 4.8485886509297416e-05, 6.3275838328991085e-05, 5.6545839470345527e-05, 5.9460933698574081e-05, 5.6197139201685786e-05, 7.6811709732282907e-05, 5.5864729802124202e-05, 5.6115561164915562e-05, 6.1611732235178351e-05, 6.686809501843527e-05, 5.9346191846998408e-05, 7.4573057645466179e-05, 6.0708905948558822e-05, 8.4128536400385201e-05, 5.5347150919260457e-05, 5.4394578910432756e-05, 6.1284925322979689e-05, 5.224193591857329e-05, 5.1305782108101994e-05, 6.4852196373976767e-05, 6.9539848482236266e-05, 5.317266914062202e-05, 5.3635943913832307e-05, 5.9522117226151749e-05, 6.7302498791832477e-05, 6.248268618946895e-05, 6.6766406234819442e-05, 6.3687461079098284e-05, 6.1718237702734768e-05, 7.6361808169167489e-05, 6.4898056734818965e-05, 6.7489920184016228e-05, 5.9942238294752315e-05, 5.7024826674023643e-05, 5.8765886933542788e-05, 5.3769465012010187e-05, 6.3715706346556544e-05, 7.0953559770714492e-05, 6.4910978835541755e-05, 6.269991717999801e-05, 7.1886694058775902e-05, 6.6029206209350377e-05, 8.4312625403981656e-05, 6.2752827943768352e-05, 5.3599196689901873e-05, 6.7878478148486465e-05, 4.8359084757976234e-05, 5.4359952628146857e-05, 7.2128852480091155e-05, 5.9601516113616526e-05, 5.5060376325855032e-05, 4.9797683459473774e-05, 6.0032212786609307e-05, 5.1810391596518457e-05, 6.2011902628000826e-05, 7.0657049946021289e-05, 5.1015751523664221e-05, 5.1396367780398577e-05, 5.5261727538891137e-05, 4.9633687012828887e-05, 5.1185026677558199e-05, 5.0158894737251103e-05, 7.6997072028461844e-05, 6.6475753556005657e-05, 6.352123455144465e-05, 6.4623367507010698e-05, 5.8855639508692548e-05, 5.376600893214345e-05, 6.2899271142669022e-05, 7.4385810876265168e-05, 6.9374102167785168e-05, 6.930787640158087e-05, 5.7918889069696888e-05, 6.3334686274174601e-05, 6.9218243879731745e-05, 4.9862101150210947e-05, 6.4618325268384069e-05, 5.3819523600395769e-05, 7.7262120612431318e-05, 6.1562495830003172e-05, 6.2536782934330404e-05, 7.228535832837224e-05, 6.8564724642783403e-05, 6.2131359300110489e-05, 7.4967188993468881e-05, 7.0599046011921018e-05, 5.8291429013479501e-05, 5.5130200053099543e-05, 5.4459811508422717e-05, 6.0403544921427965e-05, 6.9387642724905163e-05, 9.4590650405734777e-05, 5.3085896070115268e-05, 6.2626415456179529e-05, 9.0469002316240221e-05, 7.2849419666454196e-05, 5.1346305554034188e-05, 7.1238340751733631e-05, 5.333349690772593e-05, 7.9163808550219983e-05, 6.4481981098651886e-05, 4.6989782276796177e-05, 5.7386576372664422e-05, 5.3440457122633234e-05, 5.802078521810472e-05, 8.9628934802021831e-05, 6.0607031628023833e-05, 5.4671614634571597e-05, 7.0030087954364717e-05, 5.729894110118039e-05, 6.7980887251906097e-05, 8.9026492787525058e-05, 8.0290330515708774e-05, 6.1754333728458732e-05, 4.9474125262349844e-05, 4.5444274292094633e-05, 6.8873567215632647e-05, 6.4641360950190574e-05, 5.7046319852815941e-05, 7.0458750997204334e-05, 6.275092891883105e-05, 7.4601135565899312e-05, 4.9166992539539933e-05, 6.9423673267010599e-05, 5.8260589867131785e-05, 7.6093718234915286e-05, 6.8125518737360835e-05, 9.2001428129151464e-05, 4.8339497880078852e-05, 5.939870243309997e-05, 7.0527574280276895e-05, 8.1198078987654299e-05, 5.2371298806974664e-05, 6.0184167523402721e-05, 6.0827416746178642e-05, 6.6963584686163813e-05, 5.8426510804565623e-05, 5.014443740947172e-05, 6.8230161559768021e-05, 4.5496097300201654e-05, 6.6787964897230268e-05, 7.0994363341014832e-05, 6.3364153902512044e-05, 4.8737660108599812e-05, 5.268546738079749e-05, 4.7112582251429558e-05, 6.4255436882376671e-05, 6.7496461269911379e-05, 5.5450691434089094e-05, 6.0064696299377829e-05, 6.9549801992252469e-05, 6.2711595091968775e-05, 5.8248460845788941e-05, 5.9216228692093864e-05, 6.3909217715263367e-05, 6.503715121652931e-05, 5.8606616221368313e-05, 8.5906038293614984e-05, 5.3638261306332424e-05, 6.0049107560189441e-05, 0.00010355351696489379, 5.9089390560984612e-05, 6.7669956479221582e-05, 6.4697938796598464e-05, 5.6183755077654496e-05, 5.8919555158354342e-05, 8.606275514466688e-05, 7.1799200668465346e-05, 6.9446592533495277e-05, 6.8035602453164756e-05, 5.7865781855070964e-05, 5.5818782129790634e-05, 5.0407776143401861e-05, 7.7352335210889578e-05, 6.0028705775039271e-05, 6.4326690335292369e-05, 5.4912383347982541e-05, 5.119750858284533e-05, 6.5179527155123651e-05, 7.114737672964111e-05, 7.9219636972993612e-05, 6.5988715505227447e-05, 8.8631459220778197e-05, 4.6447985369013622e-05, 6.0096608649473637e-05, 7.5834243034478277e-05, 7.0517351559828967e-05, 5.3633837524103001e-05, 6.3290863181464374e-05, 5.1520430133678019e-05, 4.5519223931478336e-05, 5.8115194406127557e-05, 6.7622153437696397e-05, 6.0196518461452797e-05, 5.8222569350618869e-05, 6.6628825152292848e-05, 6.3570150814484805e-05, 7.197880040621385e-05, 6.2108985730446875e-05, 7.6635828008875251e-05, 5.9603717090794817e-05, 5.9397454606369138e-05, 5.6351749663008377e-05, 7.9373079643119127e-05, 7.0565212809015065e-05, 5.4559954151045531e-05, 6.1172424466349185e-05, 5.6821299949660897e-05, 5.7654331612866372e-05, 6.886311894049868e-05, 4.1806066292338073e-05, 7.4214964115526527e-05, 5.5479853472206742e-05, 7.2641589213162661e-05, 6.8640452809631824e-05, 7.5385702075436711e-05, 6.1708873545285314e-05, 7.0831207267474383e-05, 7.2970040491782129e-05, 5.1597151468740776e-05, 8.9064415078610182e-05, 7.8011420555412769e-05, 6.293274782365188e-05, 8.8061045971699059e-05, 7.3724979301914573e-05, 7.9459357948508114e-05, 6.976127770030871e-05, 8.3073973655700684e-05, 4.8014571802923456e-05, 4.8412683099741116e-05, 5.7118111726595089e-05, 6.4630803535692394e-05, 6.1928578361403197e-05, 6.0038786614313722e-05, 6.2359467847272754e-05, 7.058998744469136e-05, 5.1483621064107865e-05, 5.9462381614139304e-05, 5.7052733609452844e-05, 5.5088290537241846e-05, 5.4695930884918198e-05, 6.3186511397361755e-05, 6.1223232478369027e-05, 6.5428481320850551e-05, 4.6679593651788309e-05, 5.0023176299873739e-05, 8.9142282376997173e-05, 7.8245378972496837e-05, 6.4506610215175897e-05, 5.4276519222185016e-05, 5.281544872559607e-05, 6.3253130065277219e-05, 6.5214451751671731e-05, 5.3324834880186245e-05, 0.00010234705405309796, 6.5399806771893054e-05, 5.416568455984816e-05, 4.9862977903103456e-05, 6.4421335991937667e-05, 6.2773026002105325e-05, 7.6465425081551075e-05, 5.5365777370752767e-05, 6.189567648107186e-05, 7.6225238444749266e-05, 7.2352195275016129e-05, 7.7274613431654871e-05, 6.3434184994548559e-05, 5.2496208809316158e-05, 7.3480972787365317e-05, 4.6383938752114773e-05, 7.4938048783224076e-05, 6.4417108660563827e-05, 5.9455174778122455e-05, 4.9506237701280043e-05, 9.354758367408067e-05, 6.5088199335150421e-05, 7.0355970819946378e-05, 6.1420643760357052e-05, 6.114679854363203e-05, 7.86382588557899e-05, 9.4419163360726088e-05, 5.8188754337606952e-05, 6.5825086494442075e-05, 5.104039519210346e-05, 7.1630594902671874e-05, 5.5904769396875054e-05, 6.76280542393215e-05, 7.0022819272708148e-05, 7.2986171289812773e-05, 6.1461192672140896e-05, 5.7903216656995937e-05, 9.0743422333616763e-05, 6.7498258431442082e-05, 7.754045509500429e-05, 8.1494363257661462e-05, 5.7701348850969225e-05, 6.3522988057229668e-05, 7.9924189776647836e-05, 7.6810603786725551e-05, 6.6867847635876387e-05, 5.2665531256934628e-05, 7.445609662681818e-05, 5.852391041116789e-05, 5.5092074035201222e-05, 7.5066673161927611e-05, 5.4246102081378922e-05, 6.1545397329609841e-05, 5.7589648349676281e-05, 7.0509231591131538e-05, 7.8534190834034234e-05, 6.4696461777202785e-05, 6.7639339249581099e-05, 7.7097058237995952e-05, 5.5850727221695706e-05, 5.6127126299543306e-05, 8.7359985627699643e-05, 6.7871769715566188e-05, 7.4585615948308259e-05, 7.2715156420599669e-05, 5.2998395403847098e-05, 5.6816363212419674e-05, 6.0251095419516787e-05, 6.5432526753284037e-05, 6.7070133809465915e-05, 7.120061491150409e-05, 6.3206956838257611e-05, 6.6481661633588374e-05, 6.758354720659554e-05, 6.1664948589168489e-05, 5.0274265959160402e-05, 6.5191765315830708e-05, 8.7969376181717962e-05, 4.6105371438898146e-05, 5.8696015912573785e-05, 6.4584055508021265e-05, 5.7849130826070905e-05, 9.1912217612843961e-05, 6.7607623350340873e-05, 5.9400903410278261e-05, 5.5933160183485597e-05, 7.3226714448537678e-05, 8.3598817582242191e-05, 6.6210086515638977e-05, 7.4119234341196716e-05, 6.8387940700631589e-05, 6.1590697441715747e-05, 5.780852006864734e-05, 7.4158371717203408e-05, 7.0682697696611285e-05, 7.9916251706890762e-05, 5.3757659770781174e-05, 5.7592747907619923e-05, 6.8228582676965743e-05, 6.2242099374998361e-05, 6.4328698499593884e-05, 6.2424507632385939e-05, 4.9477108404971659e-05, 5.8905374316964298e-05, 6.7009692429564893e-05, 6.7878274421673268e-05, 5.0002006901195273e-05, 6.9942507252562791e-05, 7.1069800469558686e-05, 5.4270571126835421e-05, 6.8696295784320682e-05, 6.314450001809746e-05, 4.3105635995743796e-05, 5.9156915085623041e-05, 6.0959875554544851e-05, 5.6394619605271146e-05, 4.8713878641137853e-05, 6.3229126681108028e-05, 5.6580105592729524e-05, 8.5468025645241141e-05, 9.5953546406235546e-05, 6.548716191900894e-05, 6.0422877140808851e-05, 5.3489144193008542e-05, 5.440496897790581e-05, 7.6103497121948749e-05, 4.8717938625486568e-05, 7.4051575211342424e-05, 8.2382561231497675e-05, 5.8927918871631846e-05, 5.9856218285858631e-05, 4.3194653699174523e-05, 7.9587312939111143e-05, 6.5823609475046396e-05, 4.6990127884782851e-05, 5.5615793826291338e-05, 5.8093122788704932e-05, 4.798142981599085e-05, 8.1899655924644321e-05, 6.1946018831804395e-05, 6.0331185522954911e-05, 5.2252577006584033e-05, 8.447185973636806e-05, 6.1741935496684164e-05, 6.6358494223095477e-05, 4.9510112148709595e-05, 4.966978303855285e-05, 5.6111290177796036e-05, 7.4250499892514199e-05, 5.7943710999097675e-05, 5.5293010518653318e-05, 5.152857193024829e-05, 7.8550627222284675e-05, 6.188404222484678e-05, 5.9261830756440759e-05, 6.8209461460355669e-05, 4.3975906010018662e-05, 6.5045904193539172e-05, 7.2488401201553643e-05, 4.9023616156773642e-05, 4.8162728489842266e-05, 4.8860554670682177e-05, 7.0665264502167702e-05, 6.5369946241844445e-05, 6.2536353652831167e-05, 5.0499889766797423e-05, 7.5085205025970936e-05, 5.4162497690413147e-05, 5.1619121222756803e-05, 6.369373295456171e-05, 5.0189002649858594e-05, 6.1404185544233769e-05, 5.3341700549935922e-05, 7.3694849561434239e-05, 0.0001029856939567253, 7.3941970185842365e-05, 0.00010587450378807262, 5.6545781262684613e-05, 5.0119979277951643e-05, 6.1222599470056593e-05, 5.9056521422462538e-05, 5.2944345952710137e-05, 4.9197566113434732e-05, 5.5676213378319517e-05, 9.3623479187954217e-05, 7.8489611041732132e-05, 6.768097955500707e-05, 6.477838905993849e-05, 6.0634611145360395e-05, 6.8315363023430109e-05, 5.3670242778025568e-05, 6.4098945586010814e-05, 6.7349297751206905e-05, 5.1388087740633637e-05, 4.945229011354968e-05, 6.6163280280306935e-05, 8.4884675743523985e-05, 9.0325003839097917e-05, 5.2094932470936328e-05, 4.8024754505604506e-05, 8.0371311923954636e-05, 6.0350925195962191e-05, 9.165199298877269e-05, 4.4980464735999703e-05, 6.851641956018284e-05, 6.8543107772711664e-05, 5.7757610193220899e-05, 4.8216617869911715e-05, 6.2916435126680881e-05, 6.1429913330357522e-05, 5.5135235015768558e-05, 7.0904097810853273e-05, 5.8120411267736927e-05, 5.9782043535960838e-05, 6.494559784187004e-05, 8.2850332546513528e-05, 5.9809277445310727e-05, 8.1561127444729209e-05, 6.0473368648672476e-05, 5.7305911468574777e-05, 8.0154815805144608e-05, 5.0879698392236605e-05, 6.3421161030419171e-05, 6.9245259510353208e-05, 6.6164313466288149e-05, 6.1574603023473173e-05, 6.4193132857326418e-05, 5.6212556955870241e-05, 5.1335679017938673e-05, 5.4641343012917787e-05, 7.0715730544179678e-05, 6.4483516325708479e-05, 6.676410703221336e-05, 5.2972554840380326e-05, 6.3981846324168146e-05, 5.9285281167831272e-05, 7.5860261858906597e-05, 5.3502339142141864e-05, 7.4173069151584059e-05, 5.7504235883243382e-05, 5.6588050938444212e-05, 7.3667964898049831e-05, 7.0319110818672925e-05, 5.8400873967912048e-05, 5.633345790556632e-05, 6.7374356149230152e-05, 7.9107332567218691e-05, 5.3504987590713426e-05, 5.6493990996386856e-05, 9.2026151833124459e-05, 5.5819091357989237e-05, 5.093588333693333e-05, 5.2144150686217472e-05, 7.3104660259559751e-05, 7.4880066676996648e-05, 5.69847397855483e-05, 5.2647308621089906e-05, 6.2675600929651409e-05, 7.5525938882492483e-05, 7.6911994256079197e-05, 6.4366882725153118e-05, 6.2575636547990143e-05, 6.0187372582731768e-05, 7.589164306409657e-05, 6.2459315813612193e-05, 6.4627151004970074e-05, 4.613758937921375e-05, 4.8258039896609262e-05, 6.0807273257523775e-05, 5.6280721764778718e-05, 5.846819476573728e-05, 6.4660736825317144e-05, 6.5127300331369042e-05, 5.923767457716167e-05, 5.5240299843717366e-05, 7.1330105129163712e-05, 6.933198164915666e-05, 6.7277258494868875e-05, 7.0043774030636996e-05, 5.610758307739161e-05, 4.5164575567469001e-05, 6.4223066146951169e-05, 8.1747559306677431e-05, 5.9166308346902952e-05, 4.8465495638083667e-05, 5.3322091844165698e-05, 7.0001871790736914e-05, 5.1840652304235846e-05, 5.9228790632914752e-05, 5.5908512877067551e-05, 6.1094731790944934e-05, 5.908535240450874e-05, 5.6675038649700582e-05, 4.6205015678424388e-05, 6.7258006311021745e-05, 7.8145487350411713e-05, 6.5755528339650482e-05, 6.1201440985314548e-05, 4.8872865590965375e-05, 5.0430469855200499e-05, 5.6455915910191834e-05, 6.0058566305087879e-05, 5.0686881877481937e-05, 5.7349559938302264e-05, 4.9483685870654881e-05, 5.4154839745024219e-05, 7.8625795140396804e-05, 6.0900725657120347e-05, 6.9414629251696169e-05, 5.3536707127932459e-05, 5.4829091823194176e-05, 6.1199854826554656e-05, 6.4813495555426925e-05, 4.6512381231877953e-05, 5.5231692385859787e-05, 5.3589970775647089e-05, 6.6670232627075166e-05, 5.8600988268153742e-05, 6.9912697654217482e-05, 5.2648312703240663e-05, 5.7567318435758352e-05, 5.082205098005943e-05, 5.67723109270446e-05, 5.360484283301048e-05, 6.9450761657208204e-05, 5.435675848275423e-05, 7.2842849476728588e-05, 8.9318353275302798e-05, 5.925464938627556e-05, 5.7501758419675753e-05, 8.0814330431167036e-05, 6.4259947976097465e-05, 5.3924264648230746e-05, 5.9329267969587818e-05, 5.519268597709015e-05, 0.00010304142051609233, 5.5524546041851863e-05, 6.2715662352275103e-05, 6.0882735851919279e-05, 6.4179803302977234e-05, 6.6603803134057671e-05, 5.4810599976917729e-05, 4.9709458835422993e-05, 5.8983139751944691e-05, 7.2837297921068966e-05, 7.5259478762745857e-05, 4.8036872613010928e-05, 4.8412704927613959e-05, 4.7929341235430911e-05, 5.9928439441137016e-05, 7.056268077576533e-05, 7.4801704613491893e-05, 6.6256761783733964e-05, 5.7477209338685498e-05, 5.3895524615654722e-05, 6.6810818680096418e-05, 6.6670254454948008e-05, 7.9210025432985276e-05, 9.3789851234760135e-05, 4.9527614464750513e-05, 7.3395174695178866e-05, 5.7081335398834199e-05, 5.2576710004359484e-05, 4.2979503632523119e-05, 5.945695738773793e-05, 8.4586783486884087e-05, 4.8403810069430619e-05, 5.5249187425943092e-05, 4.8875721404328942e-05, 7.5804207881446928e-05, 6.3573941588401794e-05, 7.7675918873865157e-05, 5.9291054640198126e-05, 7.4819181463681161e-05, 6.3153645896818489e-05, 6.9517795054707676e-05, 5.2661605877801776e-05, 5.1779392379103228e-05, 5.7789224229054525e-05, 3.7186495319474488e-05, 5.3615163778886199e-05, 7.226473098853603e-05, 7.4435447459109128e-05, 5.0352704420220107e-05, 7.6618423918262124e-05, 7.0262300141621381e-05, 5.9303198213456199e-05, 6.0979793488513678e-05, 5.0072922022081912e-05, 6.7123095504939556e-05, 6.8817891587968916e-05, 5.6484765082132071e-05, 4.9928272346733138e-05, 6.3605293689761311e-05, 6.9496614742092788e-05, 6.1380611441563815e-05, 8.6904285126365721e-05, 7.7213451731950045e-05, 7.4759023846127093e-05, 5.8590161643223837e-05, 6.1624952650163323e-05, 6.421111902454868e-05, 5.1446397264953703e-05, 6.2144121329765767e-05, 5.9318404964869842e-05, 7.676115637877956e-05, 6.8803696194663644e-05, 5.3984000260243192e-05, 5.4636733693769202e-05, 7.0834212237969041e-05, 5.976208922220394e-05, 5.9183774283155799e-05, 5.9066889662062749e-05, 6.8480127083603293e-05, 6.5644460846669972e-05, 6.4888379711192101e-05, 5.7321572967339307e-05, 5.4463715059682727e-05, 5.8358167734695598e-05, 5.4954543884377927e-05, 5.1747632824117318e-05, 5.0098682550014928e-05, 6.7153181589674205e-05, 4.7737819841131568e-05, 5.9905865782639012e-05, 6.3365150708705187e-05, 7.0301844971254468e-05, 4.9933059926843271e-05, 5.6928573030745611e-05, 6.3553816289640963e-05, 6.0200727602932602e-05, 5.4412263125414029e-05, 5.7273864513263106e-05, 6.354012293741107e-05, 6.0442122048698366e-05, 8.0519283073954284e-05, 6.2824430642649531e-05, 6.0341175412759185e-05, 5.9049853007309139e-05, 6.0055765061406419e-05, 6.7842927819583565e-05, 5.2517767471726984e-05, 6.7222958023194224e-05, 6.4012652728706598e-05, 4.9864538596011698e-05, 8.5615443822462112e-05, 5.8489000366535038e-05, 5.9467613027663901e-05, 6.8060056946706027e-05, 5.0567381549626589e-05, 4.512787563726306e-05, 5.7990393543150276e-05, 4.8847166908672079e-05, 5.3160107199801132e-05, 5.0660990382311866e-05, 6.6127424361184239e-05, 5.882826735614799e-05, 4.1927163692889735e-05, 7.3856237577274442e-05, 5.5698768846923485e-05, 5.774997771368362e-05, 6.9128574978094548e-05, 7.2776776505634189e-05, 6.6273925767745823e-05, 5.609067011391744e-05, 9.4543611339759082e-05, 7.3290080763399601e-05, 6.6495762439444661e-05, 7.1098584157880396e-05, 7.3259157943539321e-05, 6.4857231336645782e-05, 5.126164251123555e-05, 7.3466479079797864e-05, 6.9000700023025274e-05, 5.9249596233712509e-05, 4.9410813517170027e-05, 7.6129821536596864e-05, 7.130375161068514e-05, 6.6270826209802181e-05, 6.4647843828424811e-05, 6.6536973463371396e-05, 6.6219879954587668e-05, 6.3823150412645191e-05, 5.4348660341929644e-05, 4.9275997298536822e-05, 6.019617649144493e-05, 5.156285988050513e-05, 5.8406214520800859e-05, 6.515378481708467e-05, 5.699957546312362e-05, 8.0900186731014401e-05, 6.964669591980055e-05, 5.5601809435756877e-05, 5.8088124205823988e-05, 5.170346048544161e-05, 6.7416156525723636e-05, 6.2736056861467659e-05, 6.3234430854208767e-05, 7.209557224996388e-05, 6.1474893300328404e-05, 6.3744322687853128e-05, 6.3298481109086424e-05, 5.8604164223652333e-05, 5.8068842918146402e-05, 5.6095806939993054e-05, 5.1305687520653009e-05, 5.572157897404395e-05, 6.7046727053821087e-05, 7.5300289609003812e-05, 7.4899784522131085e-05, 5.9659781982190907e-05, 6.9219757278915495e-05, 7.7896278526168317e-05, 5.9083620726596564e-05, 6.8164663389325142e-05, 6.2112572777550668e-05, 5.0835868023568764e-05, 7.3110968514811248e-05, 5.6227170716738328e-05, 5.8172958233626559e-05, 5.5949723900994286e-05, 6.2540595536120236e-05, 5.3189207392279059e-05, 5.24236420460511e-05, 4.9449117796029896e-05, 6.4323634433094412e-05, 6.8928646214772016e-05, 6.0065827710786834e-05, 5.1653427362907678e-05, 5.3463983931578696e-05, 6.5245985751971602e-05, 5.1360002544242889e-05, 5.4378360800910741e-05, 4.4171709305373952e-05, 6.4450534409843385e-05, 6.8697132519446313e-05, 7.130161247914657e-05, 4.8539979616180062e-05, 5.1912378694396466e-05, 6.1303275288082659e-05, 6.718084478052333e-05, 6.0492253396660089e-05, 6.1148100940044969e-05, 6.2779508880339563e-05, 6.2149149016477168e-05, 5.93747099628672e-05, 5.3002218919573352e-05, 6.5486776293255389e-05, 6.1181723140180111e-05, 9.2353722720872611e-05, 5.8769343013409525e-05, 5.2721548854606226e-05, 6.3352359575219452e-05, 6.5999251091852784e-05, 6.3255247368942946e-05, 6.9413494202308357e-05, 5.9534733736654744e-05, 5.8857163821812719e-05, 6.4528023358434439e-05, 5.245614011073485e-05, 5.6103173847077414e-05, 6.3664192566648126e-05, 5.8269008150091395e-05, 4.9151007260661572e-05, 7.9258425103034824e-05, 5.3528521675616503e-05, 6.7164692154619843e-05, 5.4338157497113571e-05, 4.9044941988540813e-05, 8.4320396126713604e-05, 5.6125874834833667e-05, 6.5160616941284388e-05, 5.0850980187533423e-05, 5.8912562963087112e-05, 5.5255273764487356e-05, 6.2555489421356469e-05, 5.4489522881340235e-05, 6.8458233727142215e-05, 8.3925697254016995e-05, 7.4269955803174525e-05, 7.4641364335548133e-05, 7.4502662755548954e-05, 5.66071794310119e-05, 6.0563968872884288e-05, 6.6332919232081622e-05, 6.484294863184914e-05, 6.6423519456293434e-05, 7.722262671450153e-05, 6.3436389609705657e-05, 5.8380617701914161e-05, 6.2535320466849953e-05, 5.3418196330312639e-05, 6.0573143855435774e-05, 4.5092005166225135e-05, 6.4788619056344032e-05, 7.1339462010655552e-05, 7.6210337283555418e-05, 5.8449641073821113e-05, 6.3235500419978052e-05, 5.7201366871595383e-05, 6.0938782553421333e-05, 6.3368090195581317e-05, 5.5227912525879219e-05, 5.341206633602269e-05, 6.5744483435992151e-05, 7.6661970524583012e-05, 7.4640091042965651e-05, 5.4301264754030854e-05, 5.0529710279079154e-05, 7.1434988058172166e-05, 7.6379292295314372e-05, 5.0826547521864995e-05, 7.9739278589840978e-05, 5.6830816902220249e-05, 5.9447065723361447e-05, 5.5113840062404051e-05, 6.1700651713181287e-05, 5.2636009058915079e-05, 6.8659319367725402e-05, 7.0626760134473443e-05, 6.1918348364997655e-05, 7.5836163887288421e-05, 6.9809007982257754e-05, 4.8562727897660807e-05, 5.6577082432340831e-05, 5.5083641200326383e-05, 6.2428276578430086e-05, 6.0782367654610425e-05, 6.6455046180635691e-05, 6.1796774389222264e-05, 5.9246802265988663e-05, 5.0657654355745763e-05, 5.7423720136284828e-05, 6.825739546911791e-05, 5.4953892686171457e-05, 8.2102407759521157e-05, 5.7117260439554229e-05, 6.1929778894409537e-05, 5.6599434174131602e-05, 6.8425688368733972e-05, 5.9440193581394851e-05, 5.8340843679616228e-05, 5.4705367801943794e-05, 6.7779830715153366e-05, 6.026523988111876e-05, 6.7041764850728214e-05, 5.7503955758875236e-05, 6.8685010774061084e-05, 6.3210376538336277e-05, 6.9736248406115919e-05, 7.6687632827088237e-05, 6.0784906963817775e-05, 6.9631707447115332e-05, 5.4579300922341645e-05, 7.3455012170597911e-05, 5.351172512746416e-05, 6.8605193519033492e-05, 6.5181106037925929e-05, 5.8777546655619517e-05, 6.2734172388445586e-05, 4.8741836508270353e-05, 7.7023891208227724e-05, 6.579337059520185e-05, 5.7420424127485603e-05, 6.575126462848857e-05, 5.966677053947933e-05, 6.9445806730072945e-05, 5.5825134040787816e-05, 7.306813495233655e-05, 6.1470906075555831e-05, 4.9431597290094942e-05, 5.0106133130611852e-05, 6.5900552726816386e-05, 8.239321323344484e-05, 5.4720716434530914e-05, 5.9385787608334795e-05, 4.7077832277864218e-05, 4.7459849156439304e-05, 5.0687271141214296e-05, 6.207767000887543e-05, 5.7246656069764867e-05, 0.00011139310663565993, 8.213356341002509e-05, 6.2033534049987793e-05, 6.3126251916401088e-05, 6.5709005866665393e-05, 5.3438681788975373e-05, 5.725166920456104e-05, 6.0627378843491897e-05, 5.3774780099047348e-05, 5.2839019190287217e-05, 5.8774450735654682e-05, 6.6623179009184241e-05, 5.4346135584637523e-05, 5.8964644267689437e-05, 5.9063055232400075e-05, 5.172239980311133e-05, 4.9508686061017215e-05, 6.2679537222720683e-05, 6.077087891753763e-05, 8.6095969891175628e-05, 5.4569332860410213e-05, 6.6093220084439963e-05, 6.4160485635511577e-05, 5.5785341828595847e-05, 5.180557127459906e-05, 7.2260372689925134e-05, 5.9922400396317244e-05, 6.6717228037305176e-05, 6.4497966377530247e-05, 7.2887836722657084e-05, 6.57552300253883e-05, 5.9134039474884048e-05, 6.6451633756514639e-05, 6.0796730394940823e-05, 7.9366262070834637e-05, 6.2998187786433846e-05, 8.6218387878034264e-05, 6.3027138821780682e-05, 5.920369949308224e-05, 7.878082396928221e-05, 6.6444416006561369e-05, 5.7504403230268508e-05, 6.2666214944329113e-05, 5.4929158068262041e-05, 5.4807798733236268e-05, 6.5334919781889766e-05, 9.9457982287276536e-05, 6.2971506849862635e-05, 5.3727897466160357e-05, 6.105418287916109e-05, 6.357122038025409e-05, 9.3195871158968657e-05, 5.8820129197556525e-05, 5.8161000197287649e-05, 5.6778451835270971e-05, 6.8591420131269842e-05, 6.6636217525228858e-05, 7.0934402174316347e-05, 5.9027875977335498e-05, 8.2005812146235257e-05, 5.0348098739050329e-05, 4.5693705033045262e-05, 8.6377280240412802e-05, 6.8980159994680434e-05, 6.2796993006486446e-05, 5.5545780924148858e-05, 7.5028365245088935e-05, 5.6911441788543016e-05, 6.2859966419637203e-05, 6.8224551796447486e-05, 6.0497972299344838e-05, 7.838266174076125e-05, 4.9113314162241295e-05, 6.1209866544231772e-05, 6.686256529064849e-05, 8.1841724750120193e-05, 6.2524239183403552e-05, 6.4225896494463086e-05, 6.1235929024405777e-05, 6.3775369198992848e-05, 6.5906162490136921e-05, 7.1296839450951666e-05, 6.9750894908793271e-05, 6.3776547904126346e-05, 5.5858581617940217e-05, 7.7237353252712637e-05, 6.7795517679769546e-05, 7.6082120358478278e-05, 4.7358851588796824e-05, 5.7698431191965938e-05, 6.6335429437458515e-05, 5.2776176744373515e-05, 5.9167516155866906e-05, 6.0237271100049838e-05, 6.2607658037450165e-05, 5.8393812651047483e-05, 5.1273342251079157e-05, 6.8241351982578635e-05, 6.4579173340462148e-05, 6.1775535868946463e-05, 5.7680001191329211e-05, 5.5550659453729168e-05, 5.6449371186317876e-05, 5.9501748182810843e-05, 5.926558151259087e-05, 5.7318997278343886e-05, 6.6163913288619369e-05, 5.582596713793464e-05, 7.2038121288642287e-05, 7.5786614615935832e-05, 8.5427906014956534e-05, 4.4532011088449508e-05, 5.5988239182624966e-05, 4.603080014931038e-05, 7.1243055572267622e-05, 7.2086004365701228e-05, 6.051519449101761e-05, 6.0267706430749968e-05, 6.64878825773485e-05, 7.9354300396516919e-05, 5.5855874961707741e-05, 5.6573724577901885e-05, 6.2525206885766238e-05, 8.8362256065011024e-05, 7.8008109994698316e-05, 4.5461874833563343e-05, 5.2479979785857722e-05, 6.1307466239668429e-05, 8.0017423897515982e-05, 5.4268712119664997e-05, 5.8796922530746087e-05, 7.8909768490120769e-05, 6.5573331085033715e-05, 7.3794253694359213e-05, 5.041861004428938e-05, 6.6691725805867463e-05, 7.1184367698151618e-05, 5.2739564125658944e-05, 7.2468596044927835e-05, 5.627996870316565e-05, 5.6628163292771205e-05, 6.1282582464627922e-05, 6.380693957908079e-05, 5.9626876463880762e-05, 5.5638745834585279e-05, 7.4562747613526881e-05, 8.3497099694795907e-05, 5.5358308600261807e-05, 5.7553188526071608e-05, 7.0266032707877457e-05, 5.9033147408626974e-05, 6.3635496189817786e-05, 5.9458612668095157e-05, 4.572446778183803e-05, 5.9718331613112241e-05, 4.0981540223583579e-05, 6.4851745264604688e-05, 6.5423351770732552e-05, 6.1590435507241637e-05, 6.6234650148544461e-05, 8.05364761617966e-05, 7.8998564276844263e-05, 6.914984987815842e-05, 5.9181023971177638e-05, 7.0090209192130715e-05, 5.9486679674591869e-05, } };
const TfArray<1280, int> quant5_zero = { 1280, { 0,0,0,0,0,0,0,0,0,0,0,0,0,0,0,0,0,0,0,0,0,0,0,0,0,0,0,0,0,0,0,0,0,0,0,0,0,0,0,0,0,0,0,0,0,0,0,0,0,0,0,0,0,0,0,0,0,0,0,0,0,0,0,0,0,0,0,0,0,0,0,0,0,0,0,0,0,0,0,0,0,0,0,0,0,0,0,0,0,0,0,0,0,0,0,0,0,0,0,0,0,0,0,0,0,0,0,0,0,0,0,0,0,0,0,0,0,0,0,0,0,0,0,0,0,0,0,0,0,0,0,0,0,0,0,0,0,0,0,0,0,0,0,0,0,0,0,0,0,0,0,0,0,0,0,0,0,0,0,0,0,0,0,0,0,0,0,0,0,0,0,0,0,0,0,0,0,0,0,0,0,0,0,0,0,0,0,0,0,0,0,0,0,0,0,0,0,0,0,0,0,0,0,0,0,0,0,0,0,0,0,0,0,0,0,0,0,0,0,0,0,0,0,0,0,0,0,0,0,0,0,0,0,0,0,0,0,0,0,0,0,0,0,0,0,0,0,0,0,0,0,0,0,0,0,0,0,0,0,0,0,0,0,0,0,0,0,0,0,0,0,0,0,0,0,0,0,0,0,0,0,0,0,0,0,0,0,0,0,0,0,0,0,0,0,0,0,0,0,0,0,0,0,0,0,0,0,0,0,0,0,0,0,0,0,0,0,0,0,0,0,0,0,0,0,0,0,0,0,0,0,0,0,0,0,0,0,0,0,0,0,0,0,0,0,0,0,0,0,0,0,0,0,0,0,0,0,0,0,0,0,0,0,0,0,0,0,0,0,0,0,0,0,0,0,0,0,0,0,0,0,0,0,0,0,0,0,0,0,0,0,0,0,0,0,0,0,0,0,0,0,0,0,0,0,0,0,0,0,0,0,0,0,0,0,0,0,0,0,0,0,0,0,0,0,0,0,0,0,0,0,0,0,0,0,0,0,0,0,0,0,0,0,0,0,0,0,0,0,0,0,0,0,0,0,0,0,0,0,0,0,0,0,0,0,0,0,0,0,0,0,0,0,0,0,0,0,0,0,0,0,0,0,0,0,0,0,0,0,0,0,0,0,0,0,0,0,0,0,0,0,0,0,0,0,0,0,0,0,0,0,0,0,0,0,0,0,0,0,0,0,0,0,0,0,0,0,0,0,0,0,0,0,0,0,0,0,0,0,0,0,0,0,0,0,0,0,0,0,0,0,0,0,0,0,0,0,0,0,0,0,0,0,0,0,0,0,0,0,0,0,0,0,0,0,0,0,0,0,0,0,0,0,0,0,0,0,0,0,0,0,0,0,0,0,0,0,0,0,0,0,0,0,0,0,0,0,0,0,0,0,0,0,0,0,0,0,0,0,0,0,0,0,0,0,0,0,0,0,0,0,0,0,0,0,0,0,0,0,0,0,0,0,0,0,0,0,0,0,0,0,0,0,0,0,0,0,0,0,0,0,0,0,0,0,0,0,0,0,0,0,0,0,0,0,0,0,0,0,0,0,0,0,0,0,0,0,0,0,0,0,0,0,0,0,0,0,0,0,0,0,0,0,0,0,0,0,0,0,0,0,0,0,0,0,0,0,0,0,0,0,0,0,0,0,0,0,0,0,0,0,0,0,0,0,0,0,0,0,0,0,0,0,0,0,0,0,0,0,0,0,0,0,0,0,0,0,0,0,0,0,0,0,0,0,0,0,0,0,0,0,0,0,0,0,0,0,0,0,0,0,0,0,0,0,0,0,0,0,0,0,0,0,0,0,0,0,0,0,0,0,0,0,0,0,0,0,0,0,0,0,0,0,0,0,0,0,0,0,0,0,0,0,0,0,0,0,0,0,0,0,0,0,0,0,0,0,0,0,0,0,0,0,0,0,0,0,0,0,0,0,0,0,0,0,0,0,0,0,0,0,0,0,0,0,0,0,0,0,0,0,0,0,0,0,0,0,0,0,0,0,0,0,0,0,0,0,0,0,0,0,0,0,0,0,0,0,0,0,0,0,0,0,0,0,0,0,0,0,0,0,0,0,0,0,0,0,0,0,0,0,0,0,0,0,0,0,0,0,0,0,0,0,0,0,0,0,0,0,0,0,0,0,0,0,0,0,0,0,0,0,0,0,0,0,0,0,0,0,0,0,0,0,0,0,0,0,0,0,0,0,0,0,0,0,0,0,0,0,0,0,0,0,0,0,0,0,0,0,0,0,0,0,0,0,0,0,0,0,0,0,0,0,0,0,0,0,0,0,0,0,0,0,0,0,0,0,0,0,0,0,0,0,0,0,0,0,0,0,0,0,0,0,0,0,0,0,0,0,0,0,0,0,0,0,0,0,0,0,0,0,0,0,0,0,0,0,0,0,0,0,0,0,0,0,0,0,0,0,0,0,0,0,0,0,0,0,0,0,0,0,0,0,0,0,0,0,0,0,0,0,0,0,0,0,0,0,0,0,0,0,0,0,0,0,0,0,0,0,0,0,0,0,0,0,0,0,0,0,0,0,0,0,0,0,0,0,0,0,0,0,0,0,0,0,0,0,0,0,0,0,0,0,0,0,0,0,0,0,0,0,0,0,0,0,0,0,0,0,0,0,0,0,0,0,0,0,0,0,0,0,0,0,0,0,0,0,0,0,0,0,0,0,0,0,0,0,0,0,0,0,0,0,0,0,0,0,0,0,0,0,0,0,0,0,0,0,0,0,0,0,0,0,0,0,0,0,0,0,0,0,0,0,0,0,0,0,0,0,0,0,0,0,0,0,0,0,0,0,0,0,0,0,0,0,0,0,0,0,0,0,0,0,0,0,0,0,0,0,0,0,0,0,0,0,0,0,0,0,0,0,0,0,0,0,0,0,0,0,0 } };
const TfLiteAffineQuantization quant5 = { (TfLiteFloatArray*)&quant5_scale, (TfLiteIntArray*)&quant5_zero, 0 };
const MODEL_SECTION(EI_MODEL_SECTION) ALIGN(16) int8_t tensor_data6[1280*1*1*112] = { 
  /* [0][0][][] */ -64,69,27,-14,-123,-64,-43,44,1,-72,-123,27,-78,12,7,51,-24,-19,47,-56,38,-21,-6,5,2,-57,-35,19,51,67,127,-102,3,73,-11,4,-123,-26,7,11,-57,13,35,-76,74,-29,81,69,80,-21,-46,61,-12,-60,-4,-49,7,57,1,-39,37,-26,-47,16,-6,-9,-49,27,-17,-92,66,-49,-30,-6,-68,-4,-20,11,-22,-1,55,-10,-15,-40,-74,46,-46,62,-6,-27,-42,62,38,-4,-55,-42,-76,-33,-16,-11,57,17,-2,6,29,-2,66,-4,-3,-4,31,26, 
  /* [1][0][][] */ -18,56,24,-34,-93,19,23,39,2,-61,-70,64,-53,67,-29,64,-49,49,5,-32,-30,-8,-9,-25,14,-85,1,41,58,-51,1,-66,-29,-17,-32,31,19,2,91,8,-5,54,-14,44,-29,49,48,24,49,-127,88,58,45,67,-16,-54,-9,-3,-31,28,18,-8,-7,-10,-20,-19,52,-19,51,-18,112,-32,27,-36,-32,49,24,-15,-24,-27,37,-42,-30,39,-37,34,42,-59,-24,64,-23,-1,63,-34,-4,-18,-51,-16,12,-44,-43,-22,96,-68,-17,-46,-20,-53,5,67,74,1, 
  /* [2][0][][] */ 7,-11,42,19,11,-47,9,32,0,-117,80,56,-40,-10,45,36,42,22,13,-11,-11,-66,34,38,-19,-24,28,25,32,55,-58,-71,-47,-43,17,17,-36,21,16,-64,-31,95,-6,-2,-127,-37,19,-59,38,33,-31,57,64,119,-18,-64,-82,9,39,-87,-44,-63,20,17,-62,-4,3,32,32,34,-1,-13,-18,89,-54,44,46,73,-5,-84,53,102,11,-29,30,-37,-64,-59,24,-67,48,-3,71,-29,21,-100,-72,-64,20,-50,5,-24,1,65,-67,33,-39,-12,-47,38,44,35, 
  /* [3][0][][] */ 11,-10,-50,6,-26,-22,49,34,-4,-17,-42,54,-30,-6,-10,-38,-11,-39,46,-11,23,-66,17,-31,82,-19,-3,68,-19,-47,16,-29,-19,-15,5,-10,0,40,15,19,-49,8,-127,32,-42,55,-51,-16,10,-40,1,12,39,-11,-27,-48,-17,-15,4,-20,-29,25,23,-23,-21,-32,-9,-4,-33,-25,14,30,-18,5,10,-9,10,-29,25,-31,68,16,15,-3,-6,-48,37,-22,62,40,4,-80,-51,-16,43,-29,-39,5,1,-13,34,32,-23,-12,-8,2,-24,-94,2,-10,42,-35, 
  /* [4][0][][] */ 1,3,-44,12,-11,21,35,50,102,-13,-37,17,99,68,-15,34,-33,2,-36,-73,28,64,19,65,93,-17,-34,71,48,28,-82,14,4,90,63,8,39,-63,27,-33,47,-46,16,-50,-43,16,-24,-61,65,30,8,-19,-63,17,33,38,100,17,-7,65,-6,45,-107,-25,-23,-1,3,33,-61,63,66,-49,-102,-38,63,19,36,30,77,-45,18,14,58,-56,-39,21,14,-47,-20,-122,-35,30,-48,59,-127,122,-24,-48,62,41,55,30,37,24,30,31,35,60,30,-57,41,54, 
  /* [5][0][][] */ -71,-11,-3,43,18,-25,-17,-1,103,-44,-23,-25,37,-39,-1,-34,127,39,40,-13,61,8,-45,111,-35,84,71,0,79,62,3,52,-32,42,13,-39,38,-19,-23,18,17,-5,8,29,114,-36,-46,3,57,-79,-14,-46,14,-50,32,-11,-2,19,-24,92,24,-47,-13,13,21,6,-40,13,51,69,26,-41,-14,-4,-27,55,15,81,42,23,65,-1,75,-10,-34,0,-57,-30,-89,-9,-53,-3,83,91,-66,-11,82,80,-2,-22,-11,17,59,-7,-8,19,39,-34,46,-50,46,-108, 
  /* [6][0][][] */ 72,-58,16,10,-26,-20,-1,-24,73,-9,121,-41,57,41,21,32,81,-6,-17,-40,37,19,-91,46,-89,61,21,54,29,28,25,46,20,-75,-5,45,38,21,-92,51,38,55,-21,-22,8,16,41,-17,3,36,46,-57,44,22,-60,-24,-15,-30,-45,-25,7,-22,-33,-11,-19,-9,0,47,2,53,2,-40,-82,-7,65,6,88,6,20,-16,-1,-3,-51,84,-14,-55,-87,20,-18,-62,11,-69,23,22,34,-29,33,21,-4,67,10,50,31,-29,0,14,35,-3,10,93,-55,-127, 
  /* [7][0][][] */ 13,-28,-3,-22,-30,-49,71,7,73,-35,-7,-28,55,-29,5,72,-41,-86,54,-17,53,25,19,-18,-8,92,9,-4,13,-18,9,70,-17,36,0,-19,34,-43,27,47,-33,-18,16,-127,-58,8,-38,-28,5,46,38,45,23,19,81,6,-44,-16,-1,-17,-10,-60,-1,13,35,28,-36,-33,-29,45,-53,-18,-15,-55,94,30,9,-48,-44,-55,-24,-67,4,-12,-12,-11,-18,-50,-65,-21,-16,-122,-5,97,56,9,0,-69,53,-21,-6,40,54,27,-27,-9,-12,-42,29,-8,18,-81, 
  /* [8][0][][] */ -60,-13,17,43,-113,18,-82,60,17,-65,-14,71,-52,20,-39,-16,5,-52,8,-52,-102,10,-73,-27,-30,49,43,-7,68,13,75,-19,-7,-44,42,56,61,-81,2,-78,3,43,18,7,-95,32,72,33,15,42,-59,91,27,17,-4,-49,-23,41,-51,-48,-81,57,64,-15,-44,-91,26,30,13,-66,-13,-92,26,87,46,7,-16,127,-52,88,78,-9,33,64,-94,-54,-85,-48,-52,78,-5,-41,108,-43,-61,35,-99,-62,-19,-36,22,13,-6,55,9,-14,79,5,-42,20,19,24, 
  /* [9][0][][] */ -24,50,-60,-16,-22,20,-14,-30,-81,-10,-33,-8,24,93,19,4,4,5,3,-2,-7,-67,14,-19,33,-36,60,36,4,28,14,-127,-33,32,-57,-40,-24,9,-41,-41,-21,-21,6,3,-52,-12,-36,-5,5,-47,-65,43,5,-51,-57,23,-13,5,-11,30,-19,-2,16,-63,1,-6,-32,40,14,-15,-30,11,-11,28,1,21,34,-1,-28,-36,26,2,-54,54,1,-23,32,17,4,48,-9,64,62,47,-10,68,7,-67,13,31,-13,-7,59,35,-9,6,-38,-76,30,58,-4,22, 
  /* [10][0][][] */ 20,-49,42,1,0,40,-91,26,10,-81,-90,11,45,33,-67,-60,12,-14,6,-74,-2,-120,-16,17,15,49,98,39,10,-52,21,28,10,-48,39,110,70,19,-82,29,43,38,-86,20,-71,80,-20,-14,31,-4,-46,67,38,-91,-10,-34,-44,-51,-48,-98,-53,41,-19,-46,34,-29,15,34,-25,52,-12,-41,-2,76,-12,67,-123,90,-90,-29,4,90,41,72,-28,-27,-26,-52,30,43,31,-34,-62,59,3,12,127,44,-13,-32,13,-24,-20,-95,-32,-61,-35,5,-30,2,28,-79, 
  /* [11][0][][] */ 75,-62,30,63,18,-78,-43,-31,127,-1,2,0,39,16,-118,34,41,-32,-8,6,-14,-18,41,102,-22,-31,-35,99,-71,103,-48,16,-9,12,-48,10,70,-14,27,-11,36,8,43,-19,-56,40,-10,23,-7,21,-17,-51,58,-35,39,-36,22,13,-72,46,12,23,-71,2,-73,24,-22,32,-3,-1,-48,-60,8,-13,64,47,63,-3,25,36,-73,-41,22,16,-23,75,-44,-53,-25,-41,59,9,0,-45,-34,26,-49,48,-42,-15,33,24,37,-36,-24,-2,34,-12,62,-58,61,26, 
  /* [12][0][][] */ -15,40,-36,-29,18,-13,-31,25,-25,-18,2,31,-10,-33,7,-1,-1,-1,35,-36,-32,-1,22,-6,-10,-9,-12,-5,-17,12,-9,-36,-17,-29,8,40,21,11,-63,24,10,42,-14,4,-2,-12,-4,18,-7,-26,5,41,0,-9,3,-5,-8,25,-36,-48,31,-5,-45,-2,-19,17,-18,-8,-25,-5,75,16,18,9,45,26,-29,13,18,-47,25,17,-34,31,-1,37,-60,25,15,-38,6,-17,-4,-23,-57,4,22,37,-127,-34,-12,12,-29,5,-11,-21,60,2,-14,23,-4,-7, 
  /* [13][0][][] */ -31,-94,-34,-3,-17,18,-113,-8,15,-10,20,13,47,56,18,-2,-54,8,4,-57,-49,-41,-1,83,59,-29,6,37,3,-19,44,-82,30,-31,-35,4,-38,26,-18,21,27,57,26,-68,-36,24,87,-10,-10,-95,-2,42,-70,-20,-31,16,-80,109,-52,33,52,-21,-52,77,62,-19,-16,127,-104,44,84,71,-20,-61,23,46,-39,-56,-28,18,-25,85,-40,-77,26,80,39,-6,-19,-11,-20,-8,10,61,66,-23,-57,-50,0,-54,5,-59,-10,30,-23,53,94,8,-9,50,-11,69, 
  /* [14][0][][] */ -2,-30,-14,20,9,-121,-115,25,44,-6,-7,2,25,57,-61,26,-18,-44,-53,-1,77,-44,23,3,-11,6,9,64,-77,28,-51,5,38,1,-50,-10,24,1,21,6,34,-51,76,48,34,-55,-62,-49,12,59,40,-28,43,-27,29,14,-16,-90,-91,13,-13,-66,-90,35,5,-24,-4,-13,12,10,-28,-2,50,10,31,-15,12,-1,47,65,15,11,28,-39,-31,127,-69,-64,-29,-34,30,29,4,29,-3,16,-17,79,11,-42,55,-38,86,30,-13,53,-12,-15,58,23,40,33, 
  /* [15][0][][] */ 15,67,-14,-45,-39,-9,-11,-26,24,10,4,-39,44,10,-49,-2,-42,22,56,38,-19,-7,3,-49,-3,21,-4,17,52,-38,72,-67,-55,-49,-51,50,11,102,-50,-41,27,26,-103,57,-26,-25,29,-66,51,-57,28,35,-79,-56,-22,20,14,-36,23,33,-16,-39,26,17,59,1,-28,15,28,-6,34,-50,-38,4,-30,39,-46,-72,-56,-127,-48,-9,-33,-11,-5,45,67,25,-1,20,-11,-47,-32,44,-36,-17,-57,16,40,-18,-39,-55,44,-12,-55,4,31,31,0,55,-9,28, 
  /* [16][0][][] */ 15,-29,-10,46,-78,-8,13,-26,-51,-35,87,17,-42,-12,38,-89,33,-31,39,4,45,-20,24,-43,-23,-52,-23,-18,-29,100,102,8,-34,2,40,-24,61,-28,-24,1,-1,127,14,20,19,61,31,4,44,-22,-31,-10,-27,41,-90,-91,11,48,7,-65,-37,2,53,-65,61,-26,-51,42,109,-25,-78,-64,-28,-6,55,31,-18,-1,-35,-45,-17,-9,-42,-39,-46,92,78,19,17,18,2,59,-29,26,-84,10,-6,-19,-76,20,47,20,49,44,-17,55,-3,-30,13,99,27,-3, 
  /* [17][0][][] */ -20,-39,46,24,-29,-54,-33,1,54,0,-39,-47,8,-17,-10,6,21,-26,33,6,-6,34,-26,-18,-36,9,-40,7,-44,95,18,30,-62,-2,-78,-74,-12,-53,-46,-5,19,11,-34,20,19,-32,-42,5,23,14,70,-43,-20,29,-15,-62,63,-60,-69,-39,-18,28,13,5,-32,-9,-7,-50,4,13,-38,-48,-21,-36,50,28,9,-2,73,-4,-13,51,24,-85,40,37,-50,-50,-47,22,-27,21,-41,23,4,33,-14,11,-42,-33,71,-26,11,32,9,127,25,35,6,60,-48,15, 
  /* [18][0][][] */ 90,42,9,-2,48,-29,-77,-82,32,-23,-71,7,46,-11,-18,-53,3,29,29,-66,22,-29,-24,-99,-36,-119,40,69,33,62,61,-49,-22,-91,-19,14,-3,-49,-84,57,21,16,34,47,-36,52,68,14,12,3,24,-7,-13,38,-73,20,9,-14,-78,7,2,13,-52,33,6,-47,-50,-43,17,32,-7,44,-33,12,-22,30,-40,58,-30,-46,21,70,-55,2,29,-38,9,25,26,11,38,-41,-34,-16,59,32,-127,-31,-41,-3,-43,-66,-39,-34,3,38,31,39,-44,48,-45,-20, 
  /* [19][0][][] */ -38,14,-2,35,-47,-18,47,-81,-13,39,-28,-40,59,41,56,-8,-64,56,-19,1,45,19,4,71,74,62,15,-6,38,-30,-21,4,-4,-7,-17,-5,-10,-3,45,36,-22,-29,14,-10,-58,-28,4,-14,2,-32,-4,29,31,-21,41,-10,-18,-127,-6,44,-9,37,-19,-34,-46,16,-43,-15,15,-6,37,33,19,-43,-21,19,-7,48,-41,-34,16,-17,21,-21,-67,21,-54,57,-61,9,-9,12,8,-7,-21,8,-12,34,17,30,69,-57,24,-8,-26,32,11,-36,37,-30,-27,-9, 
  /* [20][0][][] */ -29,12,-76,9,-84,-69,64,-44,58,-26,-20,-7,-1,-56,11,-36,60,-7,66,86,22,69,27,57,-18,55,-22,16,13,127,16,62,-44,-3,19,-41,-4,23,69,49,30,27,-34,-20,17,-1,35,14,66,-18,-85,-34,-12,-19,24,2,0,-64,-20,49,39,-11,38,-10,-26,-2,4,33,13,-28,-31,-115,-36,-34,6,-35,-22,-3,11,-43,74,-59,-32,-65,-73,65,-13,46,-9,-82,-9,-9,-79,65,-73,-12,1,-54,26,38,73,-7,0,36,39,44,29,2,16,-45,41,-88, 
  /* [21][0][][] */ 8,2,-87,112,-2,-15,33,-127,78,5,38,-78,8,-16,-34,34,63,-49,18,18,14,39,-8,67,-29,-42,51,-42,-75,123,-38,17,-8,49,-72,82,80,14,-28,78,-66,-43,56,83,-33,15,49,-77,39,66,34,-73,80,-104,61,-7,-33,-4,-94,6,24,-36,-67,75,-10,10,10,12,52,17,-75,1,-40,-37,2,19,30,-5,6,22,45,-89,-23,-6,-114,-34,-34,75,-36,-122,-54,0,25,-29,5,10,43,-22,-85,37,2,45,53,-65,56,-1,21,79,38,28,-20,7, 
  /* [22][0][][] */ 22,58,7,-41,-66,-95,-8,-34,31,-48,1,64,-37,6,7,-62,-64,-39,65,-19,-35,-35,3,-16,92,-100,-21,65,-20,-41,19,-46,-29,48,21,10,-29,38,-57,48,-47,44,-35,86,-33,-19,18,-38,15,47,78,8,24,36,40,40,26,-46,4,-26,-79,-127,40,22,-51,-27,3,-9,5,4,59,-18,-44,27,10,56,5,21,-11,-79,14,-64,-24,36,-39,-28,70,98,17,0,-8,-7,30,-24,30,0,-106,20,-50,-97,54,43,-13,-32,40,-62,28,-60,27,48,56,26, 
  /* [23][0][][] */ -28,9,32,46,-40,-77,7,-6,-13,10,-9,16,-116,12,40,-12,-14,-16,10,23,30,-41,-23,-41,-46,50,-10,-16,41,32,48,-1,-23,26,39,24,-17,5,28,51,-13,43,-9,-9,5,-13,74,-14,4,-29,-28,127,-22,27,-9,-67,-47,12,-16,-17,-42,-47,20,-30,12,-50,-10,44,45,35,19,-30,10,-30,44,20,-11,-2,-15,-66,35,-57,-32,-8,-41,9,-56,1,28,-66,-12,28,38,-44,-24,-46,-48,-36,-32,0,-4,19,-13,-14,-63,-16,51,-5,-18,9,46,-1, 
  /* [24][0][][] */ 59,2,-12,30,-8,-35,0,9,-24,1,-18,-16,15,-7,19,16,-8,-2,127,-28,76,-29,-59,-6,-59,-30,18,-11,85,0,-17,8,-29,2,-24,9,24,7,2,-7,-2,57,4,-12,-12,63,-7,-13,50,45,0,-22,37,16,-46,-26,24,4,-24,19,-34,-31,7,-25,-23,-84,47,32,19,44,-12,-11,-8,-38,-20,0,-17,45,-17,-16,56,21,-54,-2,-20,14,19,14,-19,51,24,-38,-36,2,16,21,-17,-16,10,-4,28,28,-10,8,-46,-11,15,-44,47,28,-58,-55, 
  /* [25][0][][] */ 123,-63,24,82,69,55,34,-13,63,24,-48,-36,31,25,41,69,2,14,-33,-19,-2,5,-20,127,15,16,-46,9,42,39,-51,39,7,84,-29,19,30,29,6,-2,6,-23,40,6,-23,27,-19,-27,12,11,9,-12,23,36,33,11,-16,1,-11,30,-23,9,5,50,-8,-5,4,-10,43,-13,12,-40,-20,-37,13,10,92,19,21,38,3,-15,33,43,-11,27,7,29,-5,9,-16,-24,23,81,-12,18,55,-23,1,30,-48,18,15,40,4,42,8,7,52,24,-8,-46, 
  /* [26][0][][] */ 37,39,16,29,-4,13,-24,-68,44,-22,-36,48,-13,4,-77,-58,-52,47,-42,4,6,36,84,8,-2,-35,-65,44,-47,-30,7,-2,39,-6,45,60,50,43,-43,91,55,52,-58,-6,-76,75,-40,28,-25,27,-36,-9,-12,5,-36,-22,-95,-9,26,18,-75,28,-90,-4,11,7,-118,36,-49,-61,61,14,-6,48,75,-1,50,-48,-5,-12,46,-28,-54,-1,0,118,43,-14,-15,2,41,16,12,-47,-30,-34,20,-51,-127,-22,36,-44,97,-44,-109,-46,7,-81,-18,31,-46,56, 
  /* [27][0][][] */ 4,-3,-44,40,-52,-27,50,-17,30,-16,-17,-2,-56,0,-27,-68,48,-16,11,0,-14,-2,-25,-20,-12,-42,32,-4,-27,-10,5,-16,-47,35,58,13,3,45,14,-9,-47,-30,-71,57,-72,45,-16,14,-15,23,19,10,-52,22,-32,-35,-56,17,70,-7,2,-47,17,-53,16,-1,-65,53,23,0,-7,20,-56,3,85,58,62,7,-44,-22,46,-20,-43,37,-65,-14,25,-4,30,-19,-38,12,-15,-14,5,-19,19,-127,-26,-17,-23,8,-34,-22,-28,22,-28,-24,-32,-3,35,-31, 
  /* [28][0][][] */ 91,8,-14,4,-35,20,30,-4,-15,47,-1,33,31,23,-6,-40,21,51,21,8,14,-10,2,-4,-16,-54,48,46,25,-24,-33,-36,-5,-14,7,27,-7,25,-7,-4,-17,60,-32,83,-127,3,-14,-33,-49,39,-18,2,-32,-29,-72,-12,-66,-24,47,-63,1,18,-51,37,67,-18,-48,77,15,-15,1,29,-12,26,35,-4,-20,20,40,8,45,18,-54,12,2,-29,-31,-34,-75,4,-29,-35,19,41,60,-29,17,-43,-2,48,46,13,47,10,-70,56,28,-13,-71,14,-43,68, 
  /* [29][0][][] */ -59,56,-49,-32,-31,30,-68,14,37,-39,23,15,-46,34,-14,51,-18,40,-58,-5,-29,-86,7,-9,59,-18,-30,13,15,70,32,-9,-32,36,-55,7,-57,-6,-39,26,48,-48,-11,33,-19,11,127,35,78,-114,17,37,2,-45,-24,-16,-80,67,-66,-23,79,23,-45,-46,-19,-9,-26,30,-22,-22,15,2,17,-6,1,79,-43,-18,24,18,-12,1,-58,-41,-58,-1,31,-47,20,-21,-55,-43,33,22,-48,10,34,-18,-31,-40,5,49,47,-44,18,-37,-6,-35,-56,98,84,-19, 
  /* [30][0][][] */ -49,-40,-12,25,12,32,-126,-84,8,14,-127,14,99,74,-27,22,10,-2,16,71,58,-112,57,-76,-10,-29,-49,20,-6,-17,125,9,-44,-82,14,-17,3,91,11,44,1,44,-20,4,18,79,11,-31,-52,-123,-24,11,-8,-26,-88,-25,-1,-1,-74,2,8,61,98,60,101,-5,43,-20,-21,-43,12,55,22,53,-41,-15,-76,20,-78,-83,21,64,31,-70,-1,-23,31,-44,-53,48,-15,-83,-24,54,69,-93,-30,-4,-20,-60,36,-51,63,0,-57,7,11,-87,-87,70,-14,-26, 
  /* [31][0][][] */ 4,19,-22,10,-17,-42,-34,-42,-3,-62,-6,127,-46,-6,-37,-63,30,-9,8,56,-6,-60,-38,-16,38,45,-47,34,-30,-24,40,8,-56,72,40,12,-37,101,-25,24,-56,17,-88,4,-28,57,-54,2,0,52,96,28,0,8,11,-39,-30,-76,14,-33,-114,-66,-50,-25,-57,-42,-18,62,-40,-30,60,2,-10,29,72,21,28,-26,-7,11,71,16,-36,-1,-52,-29,41,70,59,87,61,-27,24,-24,47,-3,-48,32,36,-63,47,6,-37,-35,31,21,29,-117,-1,-28,110,-52, 
  /* [32][0][][] */ -22,39,-60,-36,-40,10,-17,24,-4,-35,-36,31,-46,121,-17,-14,-1,-59,9,11,-14,6,30,7,47,40,41,15,7,-87,82,-36,-41,46,45,-26,18,45,69,-39,15,-2,-25,-19,-71,29,2,-38,10,34,-58,15,30,-47,-28,5,-6,21,84,41,7,-30,39,-127,-37,-33,-102,13,-20,63,-4,17,0,6,64,115,9,36,-66,-48,-2,-51,-77,50,-43,70,5,20,71,-122,-81,36,-6,49,-7,50,-11,22,-35,-50,31,22,9,10,-69,-37,-1,-24,-15,-4,77,25, 
  /* [33][0][][] */ 7,-7,-127,55,-34,9,43,-60,17,20,12,37,57,49,60,22,41,21,9,-2,-37,11,28,79,37,65,-65,85,-56,-20,30,-21,11,-7,44,18,39,0,-66,-21,59,-17,52,15,13,-6,11,-74,36,-36,66,-3,-74,47,78,-41,-19,-29,-53,12,42,-13,-5,37,-17,15,-44,45,1,9,38,-8,16,-24,92,21,1,-16,93,-29,-30,41,20,-93,-64,-13,23,-13,8,-91,-6,12,-57,-9,74,9,3,9,-17,12,9,-84,21,-19,8,108,60,42,29,3,-29,59, 
  /* [34][0][][] */ 3,-41,22,35,-43,-55,-4,32,-61,26,1,-13,1,12,7,-32,-14,-30,83,-20,-8,10,-38,-127,18,3,43,9,66,55,19,-67,-24,-15,15,-22,1,-2,13,-21,-13,11,-19,31,-15,-6,-7,-46,45,3,32,53,-38,18,-37,-6,-43,9,46,35,0,-8,52,-48,-33,-37,-4,43,-29,-62,-37,-63,-25,47,20,63,-16,14,-52,-24,35,26,-48,-34,-11,-16,25,-12,81,-15,25,22,-20,-51,-43,17,-29,-55,-7,7,57,7,42,60,-39,14,15,27,34,45,39,17, 
  /* [35][0][][] */ 54,12,-7,95,-21,36,13,-53,98,6,2,-12,67,48,-20,23,25,14,-25,-35,-42,19,56,98,-6,18,-19,37,14,42,-5,61,-2,54,1,-4,43,2,-127,101,6,4,6,-21,-55,36,3,-33,-12,-51,-3,-90,36,115,73,-25,-21,-28,-93,74,10,63,-17,121,-26,35,9,19,-8,69,-39,-17,68,25,53,15,-6,48,-10,39,-54,-58,64,-39,-46,40,-15,21,6,-52,21,7,-33,65,-13,-2,5,-19,-24,-28,3,-16,39,67,-74,69,-65,10,21,-49,29,-9, 
  /* [36][0][][] */ -1,-90,11,38,18,-27,3,-59,26,-36,31,-42,83,39,13,0,75,-40,15,-22,-12,37,-127,100,53,32,33,-7,-41,32,85,58,-6,-37,48,-14,91,-23,-3,28,-28,-63,34,-31,58,32,24,0,-54,1,-9,-51,-7,29,-47,-17,28,-91,-23,76,-82,83,-17,-10,-12,-26,-27,55,-62,7,0,-74,-40,-34,-41,8,-63,108,2,-1,3,8,-11,76,-50,15,-49,-30,-39,6,0,-26,-31,20,18,97,64,-43,47,58,67,-34,-27,-46,-37,-7,80,-53,54,-58,-3,41, 
  /* [37][0][][] */ 14,3,35,29,-12,12,-20,-34,-11,-43,41,27,-27,14,-12,-71,7,57,-24,-8,-20,-22,-28,-17,-10,10,45,-70,19,22,88,-62,-40,11,33,-11,-22,-18,-13,-50,-58,65,-39,-10,-30,66,69,21,-24,37,58,-2,-27,33,19,-60,-88,2,-34,-54,-43,-36,67,-2,73,-23,-22,11,38,9,-8,7,-23,35,79,50,1,62,-27,-43,9,-35,4,-19,-127,-87,-18,-52,-35,-43,-23,6,-10,12,11,-10,-27,-62,-39,49,2,22,36,16,-5,7,-14,-50,-29,16,84,34, 
  /* [38][0][][] */ 70,28,82,-8,-35,23,19,-14,-23,7,0,37,41,49,-72,-4,19,-44,25,-31,-52,-7,-22,-6,-30,-1,29,42,-5,-11,0,24,-9,3,-30,45,-46,2,2,-18,33,18,-82,34,13,-20,83,-107,11,-69,-47,87,-4,79,-47,13,66,5,1,-10,-36,29,38,-71,-2,-51,10,97,-19,27,51,-68,11,15,109,20,56,-3,-26,-94,41,29,-27,86,41,43,31,3,-1,-18,-124,26,63,89,-21,40,-36,6,-11,7,-13,-18,5,-40,-48,-63,52,26,-127,-16,5,-69, 
  /* [39][0][][] */ 99,5,30,12,-14,64,-59,-42,35,7,-26,26,-57,50,-32,46,-74,52,-15,-33,-49,-36,-32,41,17,-51,9,2,-10,25,57,-100,-32,44,-10,43,-107,-4,9,-41,14,120,5,20,-105,5,44,-120,-7,86,-48,-37,-33,7,-51,-7,9,120,95,4,-42,13,-42,34,96,-8,-98,-4,-15,48,47,-37,-127,31,-52,21,1,-13,-36,37,-15,-67,-34,-12,66,55,-4,39,-56,-50,-53,24,12,74,-53,-8,-44,-4,62,65,-36,-81,75,5,-50,17,116,29,2,35,-28,47, 
  /* [40][0][][] */ -34,-14,12,48,7,40,22,12,27,34,17,-29,-44,86,17,15,32,-43,14,29,-72,-27,22,107,78,79,-59,54,51,46,44,-41,-40,15,-8,-7,14,37,106,-11,-21,-86,46,-72,-1,-58,-20,26,19,13,78,29,19,33,74,-21,1,23,-47,-59,2,94,96,-1,16,-73,10,-13,-11,80,-4,-60,51,55,-16,-33,5,57,-42,-34,-5,27,-2,-12,-34,17,31,-60,-68,-96,16,12,-22,-6,-27,18,-33,-43,6,17,14,13,40,1,-13,127,13,-24,11,1,61,71, 
  /* [41][0][][] */ -46,58,-18,36,-8,32,4,-71,-21,-34,-73,-38,-48,41,-1,0,-36,78,-24,86,-16,47,-28,70,59,87,-97,38,76,-43,-62,-32,18,27,-43,53,-50,-13,24,15,4,40,62,19,-12,-52,-69,-7,12,-8,-8,25,68,-48,-13,-42,-22,-71,7,-5,84,72,-51,64,6,44,6,-11,16,-46,58,70,44,38,-18,-30,-28,33,-19,-11,54,-10,15,-15,-127,83,-103,20,-123,-49,-97,14,-54,24,-66,-33,31,-21,-69,-4,-11,36,62,28,45,88,75,-31,24,-17,-13,35, 
  /* [42][0][][] */ 65,17,0,92,-1,-2,0,59,20,-36,-18,-24,43,-79,-44,-34,-54,43,127,-47,-40,-72,-45,45,36,21,94,28,85,-51,75,-22,1,104,51,18,-20,32,-51,-4,-67,33,20,36,76,32,9,-5,-26,-85,100,9,-15,-75,62,-73,19,16,16,42,-10,-10,-14,28,7,-96,-35,16,82,-21,36,-61,-53,-31,-67,45,-6,64,39,18,60,35,-82,85,72,-18,43,15,65,-32,-47,-105,52,-37,-18,-74,65,-22,-24,14,-1,5,72,15,-25,-39,66,-13,-53,22,49,-46, 
  /* [43][0][][] */ 8,-120,-66,-44,36,45,-58,-18,43,16,52,-79,30,91,-6,41,19,-19,22,50,65,-3,-14,7,-5,51,-66,59,16,-70,-52,-70,-40,29,-23,-4,-84,21,41,27,-53,2,9,-21,-80,-41,-117,-127,20,21,14,17,11,-51,-70,-7,3,-15,-13,32,66,69,0,36,-19,37,33,22,-12,62,-72,77,65,-2,25,-44,-27,60,32,31,23,8,7,-12,-80,29,-62,32,-73,-23,-54,6,-62,1,19,34,-39,8,-76,68,3,-19,25,-82,-77,103,16,-33,18,-53,-28,47, 
  /* [44][0][][] */ 98,-17,-22,-5,1,-36,33,-67,22,-47,-3,-66,72,-12,52,63,10,39,11,-6,18,-35,48,4,-17,4,-51,19,-67,69,55,44,-40,-7,-33,-69,16,-16,-50,-44,36,-29,-4,-64,-53,11,-23,3,14,4,32,-22,-14,-22,17,-8,-18,-18,-44,-34,58,51,-9,4,43,19,-43,-27,26,4,-58,-92,-15,-12,38,43,72,30,48,-24,-57,3,51,-127,-27,59,-30,-37,12,-63,-44,-28,1,21,-115,18,58,-50,-66,23,2,-24,16,32,47,22,45,-4,100,98,-15,28, 
  /* [45][0][][] */ 68,-2,-10,15,4,14,-67,36,-92,19,4,-43,-32,23,5,31,-30,-9,-14,-10,-42,19,-19,4,18,8,76,34,50,-37,-63,-44,46,-14,-16,115,-60,-24,-60,-49,31,14,-106,32,-67,49,14,-127,-25,24,3,3,-14,38,-63,-17,16,77,34,-11,-13,-26,-98,31,7,-6,-63,34,-5,-66,43,-9,-18,38,79,52,24,-8,-52,-20,-45,-12,10,-9,-53,5,-73,-53,-23,-40,7,22,-26,35,9,-41,2,23,-31,33,-62,-42,0,60,-94,5,-17,-24,61,94,-62,17, 
  /* [46][0][][] */ 43,52,-53,47,-23,22,-2,26,3,24,17,17,-47,-9,-1,-29,-34,18,-23,-61,33,-28,-43,43,-9,-48,-35,4,11,-86,2,37,9,92,3,29,-4,101,40,44,-9,53,-51,90,-35,101,28,27,-14,5,58,-55,-36,-42,12,-69,-32,60,25,47,-36,-58,-26,24,24,18,-36,96,47,-127,27,-7,-100,-33,15,19,-46,65,3,-4,72,-16,2,16,56,51,36,-45,80,-34,-31,-64,44,14,-40,-11,1,-99,-23,-15,-72,-5,-16,-20,-64,-19,34,11,-25,-1,-3,-15, 
  /* [47][0][][] */ -19,-70,8,-20,-40,42,-13,-41,24,29,-50,20,-18,19,-13,-27,9,32,49,11,-7,-7,4,24,29,-40,2,35,22,-56,9,53,-74,-50,6,14,-28,49,-32,46,-32,-2,55,-33,-42,75,-25,78,32,50,-12,26,-2,-1,-66,47,-46,-52,27,-81,-12,9,-14,-15,91,-30,-31,11,50,-25,-73,-27,-33,32,-4,39,-17,59,-17,-1,-27,65,-50,2,18,-27,52,19,5,-28,-33,72,-7,-37,29,93,7,-41,-31,-56,69,7,127,62,-11,-23,-12,-72,-48,35,26,-2, 
  /* [48][0][][] */ -44,32,-65,26,-32,-64,0,-51,-47,-58,-56,93,-50,51,10,28,-31,-55,22,-18,-28,-57,-16,-75,52,4,-34,20,53,-25,10,-52,55,-5,41,-85,-46,38,-4,-20,16,73,21,-41,-32,-16,7,19,10,-85,-15,-8,6,-19,-21,45,25,-17,-9,29,2,-115,-31,-42,-5,-67,-57,48,27,-83,10,23,-105,15,46,37,-47,-35,-115,-16,-19,-77,-11,4,-17,40,33,-21,-17,-23,-52,23,-13,-28,37,18,-72,-13,-32,-75,22,29,-18,127,-27,-22,9,-40,14,-19,-11,-11, 
  /* [49][0][][] */ 13,5,-41,12,15,-13,24,40,6,47,-11,77,3,8,-17,-46,22,7,-12,14,-40,-5,66,14,0,-56,19,53,19,-2,-20,-5,-127,48,46,61,-34,21,24,8,3,49,-17,48,-77,-13,52,-25,-26,44,82,11,-43,30,8,8,-15,8,49,-11,-9,-15,-29,-1,21,56,9,6,35,12,9,8,33,18,29,40,11,43,44,1,-31,-4,-71,-6,2,47,-1,15,7,-38,-12,-60,10,5,2,1,-6,-35,39,-8,-3,-12,45,9,-85,25,43,-15,-51,43,39,60, 
  /* [50][0][][] */ -27,-62,-26,-1,-57,-9,24,9,-9,-14,-44,2,47,33,0,-31,-33,-36,1,-84,54,-33,-41,21,30,28,-101,-13,40,-55,-31,60,-30,7,12,21,-26,-14,74,-44,-58,35,61,-7,46,-67,-10,9,36,-14,-5,-67,-24,-22,-21,24,1,-32,-16,-30,-40,-32,-2,114,-15,-13,13,2,25,-20,31,-5,17,3,-7,-23,-47,78,-23,-19,1,8,-38,-32,-3,125,-21,1,14,-111,47,-10,-127,23,14,-3,-83,-2,-40,65,67,71,54,52,-4,86,-6,-15,43,-16,8,-45, 
  /* [51][0][][] */ 48,4,-34,23,18,-29,19,-12,-70,-31,-80,7,26,23,-34,-10,-44,30,32,11,-22,-99,-2,-28,14,22,32,6,36,24,35,-90,43,11,-16,-9,-92,-15,-11,-9,-23,-17,9,-9,-51,35,35,-28,-41,-33,99,29,-9,-54,52,-17,-24,-63,0,15,-5,-12,-30,-15,-58,1,-29,-5,17,63,51,27,4,4,4,-8,-40,13,-10,-105,24,-58,-28,-2,-12,-16,42,-10,-61,-65,-127,37,-36,-17,24,-42,9,42,-30,-4,8,-27,-52,54,-33,-26,-11,-21,-46,35,25,-57, 
  /* [52][0][][] */ -91,-27,-60,-28,-35,-32,-36,-58,-5,-30,20,9,-15,-6,28,-56,29,-67,61,68,27,-22,-47,-34,14,51,-75,44,32,30,-89,42,-56,-72,20,24,-23,9,83,0,20,2,-78,14,65,-8,-40,10,38,-43,-6,-1,49,-99,6,45,-43,-85,-127,41,66,65,-32,43,12,17,50,-3,0,-51,-12,-76,0,20,51,-5,-59,17,61,48,39,73,25,-46,-59,48,-27,-12,-41,-114,-31,21,-37,38,11,74,-63,56,11,6,25,-77,24,6,-25,33,54,-40,39,-6,41,-78, 
  /* [53][0][][] */ 19,0,-24,62,16,-28,49,62,49,32,-12,-9,2,67,50,-6,-13,22,53,21,-15,-76,108,60,36,-46,5,54,18,59,-21,24,-40,-36,-24,-21,69,113,-66,-52,32,71,-83,-38,-39,-10,39,-42,-12,4,-18,-20,-76,1,-127,-94,35,-40,22,-98,-18,12,-31,-31,75,38,29,98,90,20,-42,-21,-21,26,47,44,63,42,0,-4,34,63,-55,0,75,-52,-1,-70,-10,30,-30,12,13,-69,19,12,-46,-23,2,29,29,7,-14,104,-1,73,95,-58,4,73,-10,48, 
  /* [54][0][][] */ -4,59,35,21,-40,71,-53,48,-15,-6,-16,21,-59,-5,-97,19,-90,113,36,9,-36,-8,46,-6,-37,-46,77,-21,-26,-18,-52,-54,-24,50,-14,77,-71,105,10,-24,-74,6,-61,16,10,117,-24,32,28,2,-7,117,45,6,47,-41,83,21,-89,-67,-50,30,-96,-5,-16,-74,31,-5,6,-16,83,48,-63,-22,14,76,20,127,-35,-19,-4,-11,23,81,-84,-26,-24,-84,-53,45,30,-11,-33,104,-4,71,31,9,26,-113,-82,43,59,14,-51,49,-20,-90,62,12,-16,-29, 
  /* [55][0][][] */ 103,-75,-29,22,63,-54,-37,57,1,-54,96,-3,52,-23,127,-21,3,-75,-5,-91,108,-16,-29,61,78,23,17,4,65,11,14,6,24,30,1,36,61,-63,-58,-8,0,-78,-39,57,-36,12,-56,-93,77,52,-26,-13,94,31,-9,-13,-10,-35,-28,-3,22,28,20,78,-108,17,-29,33,22,7,56,-65,-6,52,64,-14,70,45,24,30,15,-105,10,-35,-59,-29,-12,-3,-43,-41,30,55,-8,45,80,-51,39,-119,75,4,30,-61,6,-13,68,9,-19,72,65,-44,-20,9, 
  /* [56][0][][] */ -57,53,-5,-25,-127,-3,30,-22,-17,-58,-31,1,-50,19,26,45,-80,-6,-34,-65,1,-50,-20,20,-11,-2,-65,-19,9,-63,-1,-56,13,62,-2,91,-37,14,-124,16,-51,28,68,-55,-6,72,2,-48,7,-2,3,6,63,-32,-44,-101,-24,98,58,-15,75,-2,-15,49,-7,-51,-12,40,-29,-3,69,-22,66,-20,-3,4,-87,50,19,-14,34,31,-2,14,19,79,2,-15,23,15,-4,11,-23,82,15,23,-6,27,5,-7,21,-32,22,13,-54,33,71,-5,-53,83,-28,30, 
  /* [57][0][][] */ -53,4,-59,-55,-57,-29,9,-72,56,-17,-9,48,21,30,51,25,60,-45,24,-76,-35,29,-42,6,-38,115,-22,-40,-9,11,-13,-2,-38,47,16,127,11,40,-66,3,-7,41,13,-46,-67,-29,-6,4,-20,50,38,-69,44,6,-10,43,34,39,8,-6,27,126,1,23,0,-71,-5,-14,-11,73,89,-56,11,-63,-2,62,65,41,-34,19,2,71,21,43,10,32,-21,10,-21,-15,-47,0,-9,36,-21,19,-11,-26,-11,25,-6,-56,-14,1,59,7,-16,-39,111,62,-8,-66, 
  /* [58][0][][] */ -22,-52,-75,-25,68,-8,30,-34,45,10,-6,56,94,5,-5,-57,-12,-11,5,4,56,87,-63,-10,50,-16,-41,25,18,121,6,24,-91,111,-59,12,4,-56,127,-30,-40,49,-67,-53,13,79,-18,-46,50,18,-14,17,21,76,60,21,45,-125,-33,-26,-27,40,-37,6,70,15,-39,2,-9,3,-40,-71,-18,-54,-36,-42,19,78,-16,1,60,76,35,-40,6,39,-58,-49,-23,-105,-65,-72,-8,44,-39,-24,36,-51,117,14,12,-31,-4,-27,-10,-37,-33,46,19,-77,87,-110, 
  /* [59][0][][] */ -10,49,-66,-84,-62,-34,74,-41,-8,-33,-4,-19,34,44,-3,36,2,-59,96,12,-19,-10,-34,-42,-27,48,-52,20,-49,97,21,90,-22,-69,-1,127,69,-63,44,32,31,19,-53,-2,-28,-7,29,5,30,-13,4,-34,114,-68,-44,14,90,-79,-26,-25,-68,29,-12,-23,-69,-51,28,-17,33,35,-13,-87,-25,-66,-35,38,42,-26,-7,-5,24,-24,43,14,-44,46,0,-3,49,-102,-26,-21,-67,17,11,28,23,-37,68,64,-9,-41,-28,42,27,-15,-11,92,5,9,101,-30, 
  /* [60][0][][] */ 74,-4,-10,-3,76,-13,-29,75,-34,-6,47,86,27,15,-13,-40,37,63,-57,46,28,-79,21,62,-35,3,55,-19,-55,52,59,9,-1,-41,-16,47,57,22,-19,-15,35,-11,8,10,-2,10,-24,-83,17,34,-18,5,-53,69,-47,-87,-107,-10,-101,15,-47,-10,-25,26,22,-90,-90,19,112,-1,24,-53,15,17,117,40,-6,53,30,-60,-11,23,-106,22,113,-41,-35,-11,24,-26,-59,-36,-3,35,82,70,-24,4,-114,30,-8,-92,-13,-19,13,40,29,-22,-127,85,-96,2, 
  /* [61][0][][] */ -22,4,49,-9,-44,-65,-67,19,-59,-29,-43,-48,-9,18,-16,53,-27,3,54,-34,-24,-34,85,-45,-26,-2,-13,-15,74,23,-69,-15,-36,36,34,22,-17,-9,49,-23,-5,30,-4,13,-15,-16,33,-80,-32,12,-18,47,59,-49,-79,-27,17,-25,19,34,-24,-22,-18,-54,13,28,-34,54,125,29,-8,70,-31,31,-32,5,-101,26,-55,29,21,-47,-17,-36,-48,-27,-74,22,-29,-8,-71,36,-4,-11,13,-13,4,66,-24,7,94,-34,127,52,3,36,47,-72,-5,-6,31,30, 
  /* [62][0][][] */ 42,-6,-36,60,45,57,-21,-80,45,26,-2,-48,127,30,22,40,21,27,-17,-44,63,26,31,31,31,-4,-3,11,46,35,-17,5,-1,9,9,-43,36,-28,-72,114,45,-4,1,-28,-8,17,-31,-56,-47,-44,19,-28,3,-13,-3,-5,-4,9,-29,68,8,79,-75,49,-17,40,-25,-22,-7,5,-25,-53,-44,-41,-30,-20,12,58,-9,62,-9,69,-17,26,-31,42,-46,24,-6,6,6,-32,22,49,-5,-9,31,-35,44,89,59,-22,-42,69,13,37,-79,-26,84,-11,-2,-32, 
  /* [63][0][][] */ -49,2,-73,75,-55,18,9,43,50,28,-86,19,41,-53,13,-26,26,-41,-29,-100,-14,15,64,37,11,-65,42,9,-27,-24,7,-12,75,108,-44,95,35,88,-99,41,-29,12,-25,-10,2,18,31,-122,-10,31,26,56,112,-127,-21,-85,-116,120,24,0,-84,-82,-42,-51,-2,47,22,71,5,14,-24,25,-122,10,-24,17,-38,-26,-54,-18,42,111,-93,21,-35,40,48,40,84,-35,-13,-57,44,24,-44,32,62,-48,-28,-95,-121,30,16,-18,29,-49,19,-44,-2,98,-24,-86, 
  /* [64][0][][] */ 101,-42,-9,20,7,42,7,46,19,-24,-48,58,84,56,22,-42,-11,16,52,-41,4,-14,33,57,-14,42,-6,127,6,-2,-7,-18,9,-33,-12,63,24,-62,-29,-21,29,26,24,65,7,7,-7,-56,-1,-112,37,38,42,19,-67,-55,-80,102,-77,50,-65,-9,103,-48,35,23,13,14,32,-2,78,37,-50,17,70,-12,-78,-3,-27,19,-24,11,-63,33,60,23,11,-39,38,30,-40,-38,-51,23,31,21,5,-19,-26,-66,-70,-58,36,21,-23,12,18,-17,-41,-18,-56,12, 
  /* [65][0][][] */ 13,15,25,-11,-41,18,-58,41,-52,24,-27,-6,25,51,1,-42,22,6,71,15,-54,-84,-4,-44,28,16,-41,1,53,29,-27,-21,-1,-10,-8,27,43,60,0,-11,-51,25,-104,-5,-35,0,42,18,22,-37,-47,26,-21,31,-81,-4,-10,20,4,2,-56,-54,73,-37,58,-89,18,96,28,13,-69,-18,-40,31,31,-56,-4,-14,-25,-3,-48,-27,-33,-55,40,-30,-22,4,-3,5,-58,9,28,24,15,10,-11,6,3,9,-21,-27,59,93,-13,102,9,-45,11,127,-16,-15, 
  /* [66][0][][] */ 56,-80,-4,39,-33,-55,-7,-74,52,5,66,-6,15,32,13,18,79,-108,14,-13,18,66,-70,11,31,98,38,15,110,57,-30,-8,40,33,-42,15,-20,34,-60,-25,-28,21,-11,-14,41,-68,24,-127,53,-90,51,2,-26,82,62,61,73,3,-58,-12,92,-59,-15,40,-14,1,-73,-43,-43,-14,11,-32,-32,32,52,84,46,15,19,-69,48,-18,22,-63,44,-72,11,34,7,-124,-23,-22,18,-3,84,15,2,-28,-18,-2,20,24,6,2,-15,20,-5,18,-12,-40,10,-41, 
  /* [67][0][][] */ -82,-5,-60,-17,-85,38,-86,52,10,35,-116,19,-51,106,24,-84,-17,-44,1,6,-19,-19,-36,-56,21,15,-13,-13,52,54,64,40,23,23,-14,-56,-43,112,15,-38,-84,25,-36,21,65,18,44,-15,86,3,-51,-32,77,-5,-54,41,-58,28,-46,-31,-39,-12,84,-74,70,-8,-40,119,29,19,8,7,25,12,2,-36,19,13,-61,-34,17,127,-16,-39,-1,38,3,-31,-45,29,-22,32,51,65,-39,-32,57,21,1,-5,-19,-31,53,14,2,-14,27,-113,-25,21,3,-120, 
  /* [68][0][][] */ 28,30,-125,-4,-29,4,-5,45,-27,-10,6,16,-44,26,56,-12,-44,-29,11,32,-31,37,-14,5,127,58,12,35,68,-28,2,-48,23,45,-8,-18,23,17,-57,34,-35,41,-68,83,-17,82,37,-16,14,19,18,-26,6,-57,-28,-25,-28,-8,59,83,-48,84,4,-10,51,-11,-11,119,-28,-83,-55,58,6,14,-35,12,34,-10,14,28,74,35,-30,88,8,12,28,-83,7,15,-68,-29,34,36,41,-14,-36,3,-47,-52,-51,-56,11,7,-26,-19,-4,-86,-34,-19,-3,-46, 
  /* [69][0][][] */ -28,69,-10,-59,-127,4,17,14,-6,-1,17,18,-16,-28,-38,11,-34,-11,-22,-6,-50,36,-27,-28,34,-34,25,45,22,-58,23,-42,-7,-12,-2,35,23,-16,-48,-13,-38,68,-13,-8,-11,55,-3,-6,-4,-12,10,55,63,-30,26,-43,-28,10,-9,16,-17,59,-34,-25,29,-18,15,4,-36,-60,1,4,-26,26,-30,15,-10,23,-5,-75,-69,40,34,12,-30,4,35,-69,-33,38,-26,-44,-12,75,21,33,-20,19,25,-46,-13,15,9,57,-32,38,-5,-76,35,28,22,-43, 
  /* [70][0][][] */ -3,30,9,-12,-30,-5,0,93,-10,25,-10,-5,10,-2,38,-1,-102,30,69,-45,11,-46,5,4,14,18,-11,61,84,-31,27,-42,-28,89,1,-14,-8,3,-60,-22,24,49,-8,7,-25,-1,-52,13,-25,0,64,2,-43,-70,-15,11,-2,15,24,-29,-43,-15,-49,18,52,-43,-40,72,127,28,36,-85,-35,12,53,48,13,31,-31,-6,-7,30,-13,20,35,32,50,-29,16,0,8,6,-23,3,-17,-26,17,30,33,19,49,69,-16,57,-45,-24,81,-22,3,30,-21,11, 
  /* [71][0][][] */ 59,24,-71,21,-66,-119,73,37,52,86,-73,54,-19,-38,76,-73,0,-38,-1,41,32,-71,36,38,96,-103,-87,47,-39,-42,66,-64,-39,77,-66,92,-74,33,77,62,-69,54,-38,78,-37,59,51,75,72,-30,-88,106,3,-73,-50,-62,-66,-84,82,-69,-38,-109,-16,30,-72,18,-53,104,28,-13,34,36,-91,4,32,-22,11,98,-39,-31,13,-57,-23,-54,17,-31,6,70,127,-3,-7,-86,-100,-58,73,-79,-47,7,40,-44,57,32,2,-38,14,76,25,-77,57,20,114,-5, 
  /* [72][0][][] */ -19,127,-25,0,-31,13,4,-89,-1,-79,-77,66,40,20,3,-52,-83,69,27,3,-50,-42,-58,-14,48,-52,52,53,47,12,68,-25,13,-22,18,-20,-16,-76,-34,-53,1,28,-8,14,-41,91,54,3,-41,-28,-8,-46,-36,16,20,-54,-10,-11,13,44,25,5,-16,-26,-33,14,-62,6,19,-89,68,-21,-20,16,-59,-23,-43,-6,37,-91,-11,3,-1,1,15,-3,-5,-35,-7,-4,-18,-45,-31,30,-35,-22,-96,33,-2,-1,10,-33,6,45,-50,66,-7,-42,-17,-2,9,-47, 
  /* [73][0][][] */ 14,-31,-60,47,47,18,-24,49,97,-3,-1,19,14,24,-54,4,20,3,-43,19,2,58,19,108,53,-6,-45,83,5,29,13,20,41,42,-44,-8,55,-29,-27,5,-60,-47,31,67,-17,-11,-13,11,48,-14,-33,-40,31,-34,12,-71,31,-24,-18,61,33,28,-94,-1,-74,28,-7,-12,1,-8,-44,12,38,31,12,5,28,54,127,2,-25,-46,-28,35,-52,14,-35,-22,-22,-1,33,-17,-25,31,-76,29,-63,23,7,2,42,61,47,49,-1,9,-56,-34,27,-48,101,5, 
  /* [74][0][][] */ -29,87,3,94,-43,-16,-24,-23,72,57,-54,80,78,-124,47,57,35,-9,-4,-78,-63,-31,-16,71,-5,25,25,84,50,-72,-6,7,-12,39,-55,-9,-19,-4,-36,45,-17,28,-20,78,27,-18,120,-78,-1,-27,-65,60,114,-127,-26,-50,-14,23,-20,5,-25,-10,16,86,-8,-61,49,67,17,-30,57,-15,18,83,-55,15,-10,-67,-68,-74,-10,23,-66,69,-55,-31,58,-5,-69,112,-28,52,34,55,-6,68,-86,43,-92,-81,-22,-93,69,104,56,-45,1,-2,-76,82,38,9, 
  /* [75][0][][] */ 50,-127,67,61,-47,7,-39,-4,38,-43,8,-28,-76,-77,-16,4,4,-28,40,-16,-44,10,-59,34,-33,7,9,61,68,42,-26,15,-46,3,7,32,-56,-7,4,-15,3,7,-91,-22,-5,2,77,28,65,-111,-41,23,3,-52,-20,-7,-19,77,5,-76,2,-52,-79,-30,10,-91,-30,20,-11,32,16,-62,-90,-2,90,55,11,2,-57,-12,-18,2,-2,64,17,-88,64,39,0,41,-62,-64,37,0,-12,102,-63,22,-76,-3,-93,20,-5,63,-88,-15,-26,2,-30,59,49,-34, 
  /* [76][0][][] */ 62,-43,64,-37,-41,-41,-20,-79,-63,-2,-77,-11,26,-33,24,-6,-54,30,62,8,11,-29,-60,-38,75,48,81,34,7,21,22,-21,-37,20,27,-26,-127,-54,24,-1,4,40,-24,-37,-23,72,66,-27,35,12,-4,31,-34,19,51,-11,5,14,-21,46,-76,-5,-3,-5,-6,-5,-28,28,-29,-41,60,7,-4,15,-17,10,-31,23,-99,1,50,-15,-62,25,-97,34,42,61,42,-53,28,34,12,-16,8,-21,-12,2,-19,12,28,9,-23,-14,-81,18,54,-30,-15,24,13,-75, 
  /* [77][0][][] */ -7,68,24,-43,-52,-31,-12,16,-1,8,23,65,-127,-8,57,12,-9,25,-20,8,33,-57,-29,-26,14,-20,-9,3,4,-34,65,11,-18,73,21,43,-53,16,-37,47,15,37,-3,-16,-44,19,22,-48,3,-25,47,7,43,15,-3,-26,-28,5,-32,-66,-8,-17,-84,-78,22,-35,-61,29,27,-5,22,16,-18,3,7,70,-38,47,-10,-35,19,22,-15,50,3,-11,-30,-6,-9,-41,-30,-3,23,-65,-45,11,31,23,-9,42,33,-32,-29,-39,-48,3,-29,-22,9,39,9,19, 
  /* [78][0][][] */ 47,43,-66,-54,-31,-18,36,7,-23,-25,30,-58,50,65,33,11,15,35,67,-40,-2,-50,0,-48,30,18,52,-17,34,-7,32,23,-34,-39,47,-19,10,99,-58,2,-67,15,5,43,-16,30,-8,-12,73,0,2,-42,-60,-30,-29,-82,27,6,44,-38,-1,30,27,-34,89,1,-5,79,-28,-14,21,-49,-127,-12,58,68,3,8,-5,-79,-19,38,-24,19,6,-15,21,28,19,-8,0,14,-45,65,26,-13,-15,-82,-56,-17,29,-1,21,14,13,-57,104,-30,-46,24,4,19, 
  /* [79][0][][] */ 35,77,-12,9,32,24,23,29,97,-10,1,-64,-11,46,55,44,-51,-96,-5,58,33,-37,-77,10,2,87,14,87,-37,56,63,1,-27,77,15,80,-43,72,-2,-27,81,14,26,12,-57,-113,48,-27,21,35,-52,56,-35,-3,20,71,49,-127,-25,-24,47,-40,-97,88,25,7,-72,18,13,-8,-21,-79,1,28,32,-22,17,49,-18,-6,83,-82,35,-56,-62,42,-33,54,-74,-125,-75,-12,-104,59,-62,25,-43,-91,-16,61,1,-20,-16,20,19,67,6,50,74,1,-35,64, 
  /* [80][0][][] */ 50,46,-74,96,5,-112,-11,7,39,-27,26,5,-45,-21,-8,-26,-26,-64,24,40,-3,0,-27,44,14,10,58,-1,67,-42,77,2,-60,114,5,46,-9,59,-77,-44,-46,-9,-81,73,-9,90,-40,10,-47,70,-5,-6,73,-127,-46,-68,-44,26,100,49,-6,-40,-10,-62,4,-36,-51,31,36,-31,7,-22,37,46,59,59,-18,-36,17,12,3,-90,-12,-24,57,74,15,3,-16,-98,-79,63,26,26,-53,-1,-5,2,-47,-30,-22,22,4,-14,-70,-49,23,10,-22,57,50,-114, 
  /* [81][0][][] */ -72,41,-94,59,57,-31,-51,-8,-14,-57,-61,58,-36,89,14,44,-39,-48,74,-26,-82,-27,56,-13,75,-26,-8,-4,34,39,-27,5,45,6,66,-27,-3,-40,10,-70,-11,-3,-58,34,-15,54,44,-21,47,-40,-7,-11,-8,-3,-49,-73,-2,5,-12,-32,10,-79,-97,-37,-35,-75,23,-41,23,-61,69,21,41,89,106,3,81,-11,2,31,77,-57,-62,39,-35,72,43,15,91,-72,18,-5,54,25,30,72,-4,22,-73,-86,18,29,29,58,-28,-127,75,-16,-7,24,46,-34, 
  /* [82][0][][] */ 4,65,32,0,30,-74,-117,46,-2,-83,-41,-9,-8,57,-54,-63,-62,-1,6,-55,53,-26,50,-51,20,-90,-51,-28,33,-11,-48,-24,30,-48,-30,-40,-46,-44,17,-11,15,55,20,56,-47,30,-11,2,16,38,-38,36,2,-31,29,-28,-14,-22,-87,34,21,10,-26,5,-5,-14,-100,85,18,-96,-52,4,-73,-29,30,24,-68,9,23,31,-9,107,-84,-41,23,-18,20,-68,-15,3,-52,40,-71,17,13,-31,-127,7,-48,-12,43,13,12,71,-36,44,74,-99,22,13,28,57, 
